{
  "W1": [
    [
      0.19065584631575458,
      -0.31758763523174327,
      0.3215162205365979,
      0.38111927656409117,
      -0.4981220584127709,
      -0.3604550336905607,
      0.14293704257214604,
      -0.09271667645138969,
      0.10964477614603517,
      -0.17474918199786624
    ],
    [
      0.2547624827845245,
      0.2718007053128706,
      -0.010048259728762821,
      0.3058532449073952,
      0.11278540449792392,
      -0.28253270879952874,
      0.09378808837085853,
      -0.30877613021057404,
      0.22544669254828553,
      -0.06022898037725952
    ],
    [
      -0.10364084712129204,
      -0.019024258528024644,
      0.357754043155431,
      -0.12634090134503315,
      -0.23522604794064972,
      -0.1768389626070241,
      0.12237062076157293,
      0.14341068954971511,
      0.04714083232680036,
      0.11084331972433718
    ],
    [
      0.6592192597472835,
      -0.1499300330362973,
      -0.22062421931498324,
      -0.31315992425380046,
      0.16934454246591338,
      0.27414499016788385,
      -0.044353917420290774,
      -0.36250012063859716,
      -0.29548998041103436,
      0.16027608628497214
    ],
    [
      0.13912959943931621,
      0.0980915443777456,
      -0.3086109423114474,
      -0.007507960708640989,
      -0.06791204782801821,
      0.010505409738249802,
      0.17499063814429233,
      0.027092530394554358,
      0.10546400803424778,
      -0.0849528457884081
    ],
    [
      0.04029911560121346,
      0.26498016639542654,
      -0.48564796677372574,
      -0.12369046170192703,
      -0.21736272391512873,
      -0.23792775615853923,
      -0.13999994585420816,
      0.4596395385697181,
      -0.3109344942112406,
      0.2821801596713028
    ],
    [
      -0.5090447178223516,
      -0.47416745054031845,
      0.03614155170745266,
      0.2450762716282211,
      0.29481590092463794,
      0.31851653022126614,
      -0.10527293816227157,
      -0.17492960098934465,
      0.2932322283763136,
      -0.10176260342511564
    ],
    [
      -0.3829746112750421,
      -0.42161746029984687,
      -0.2692634887953852,
      0.1925644792750968,
      0.06741483123494474,
      0.23476197618897576,
      -0.1314524858009241,
      0.05238489014201394,
      0.23977917559404294,
      -0.07967374913551896
    ],
    [
      0.16573246801920924,
      -0.525465952980862,
      -0.11421022869155029,
      -0.05355845118857096,
      -0.29033043809095355,
      0.2108764234092293,
      -0.1288705230675016,
      -0.045051726024721364,
      0.18363030644170958,
      0.11744434088253096
    ],
    [
      0.06272522565380473,
      -0.22230131720291857,
      -0.2508324059980167,
      -0.15744427878801714,
      -0.635351362800769,
      -0.5725322116078793,
      -0.5321384108294493,
      -0.4436604696996477,
      0.0017876001377361576,
      -0.38688200020337576
    ],
    [
      -0.10021386887272768,
      0.6141361084380329,
      -0.07258521354020028,
      0.23452878319879839,
      -0.2934097936187221,
      -0.07239977515109747,
      -0.278437464219496,
      -0.07405681284158984,
      0.2714304270787776,
      -0.48774954075040555
    ],
    [
      0.14880258013410558,
      0.058474251667138745,
      -0.20857301482996038,
      -0.4817762521911185,
      0.03572673227316572,
      -0.19292935331560304,
      0.08620054342149117,
      -0.049219134229061115,
      0.4951059991290248,
      -0.08437879827680436
    ],
    [
      -0.3171555237611952,
      0.1203917604176545,
      0.07311894649597789,
      0.4130074678773731,
      0.2578801505821753,
      0.10753143330903911,
      0.47222303520680253,
      -0.35334727975842334,
      -0.226306572380963,
      -0.28552095291529866
    ],
    [
      -0.17825759049354295,
      -0.7889428226895999,
      0.12064319042433438,
      -0.12462596451186,
      -0.48570731982208215,
      -0.326837869426727,
      0.024977073019298347,
      0.1772821675693026,
      0.555028155402783,
      0.7996307672339849
    ],
    [
      0.26940531858049294,
      -0.6143275145277591,
      -0.5521330990776994,
      0.2739765019030055,
      -0.02338537956392872,
      0.040368439765673086,
      -0.05120383995840839,
      -0.014632481636844821,
      0.5076215501797436,
      0.13598546073911244
    ],
    [
      0.016337747778490487,
      -0.4606824566179277,
      -0.46377601535941576,
      -0.06140396157813126,
      0.09300359834192327,
      0.6314177826125987,
      0.10715267373500637,
      0.3169858165490538,
      -0.08016963380381043,
      -0.32552332665815514
    ],
    [
      -0.28601355822871133,
      -0.24782765659970224,
      0.7045742802198557,
      -0.22678569070719864,
      0.2922397182287834,
      -0.2350097850978415,
      0.3144778809609528,
      0.17893888282941278,
      -0.02060624166449243,
      0.0055000910156232045
    ],
    [
      -0.19484837082339695,
      0.24717039468826946,
      -0.13002613272942817,
      -0.39051744130307536,
      -0.3999685046416039,
      0.03675781665993047,
      0.5149169099452565,
      0.03762412142293639,
      -0.020569219507312296,
      0.12023651908061153
    ],
    [
      0.3401866370137397,
      0.058983405149443495,
      -0.19447522996767008,
      0.2802112302634025,
      0.023814817466520533,
      0.4472377071003344,
      -0.01932242392909749,
      -0.3694484725212192,
      -0.5537325856507848,
      0.4530780228455927
    ],
    [
      0.5631927785268134,
      0.006245913397366118,
      -0.07951895937360547,
      0.4932481770621222,
      -0.3444788388574571,
      -0.24347331235886183,
      0.22270192775106668,
      -0.04623387639709556,
      0.01598671596190722,
      -0.018513896164282187
    ],
    [
      -0.0460846700980638,
      0.1977982374973805,
      -0.08282671938155997,
      0.10464162857929535,
      -0.7057783995667752,
      -0.11662400226527989,
      -0.3751131816820777,
      -0.5062890679437423,
      -0.3606286590163565,
      -0.19908431903827264
    ],
    [
      0.25095096388784477,
      -0.6931962447626445,
      -0.04165013295182361,
      -0.1577609480053681,
      -0.09959620412385209,
      0.3021444305269234,
      0.12328658847326664,
      0.34410496405366015,
      -0.07916758901348189,
      -0.2941725188715914
    ],
    [
      -0.16440963004468148,
      0.023556455924390977,
      -0.006346111937647144,
      -0.38593562284680716,
      -0.07889295177278924,
      0.06661234075189325,
      0.6914129770982389,
      0.6154833925657299,
      -0.35884341084221544,
      -0.1707495773271846
    ],
    [
      -0.5345489603925924,
      -0.2818524613547112,
      0.015057786993635483,
      0.2863985327319654,
      -0.27089676792774126,
      -0.31436979228317796,
      -0.7240198131709681,
      -0.1890548313195771,
      -0.417083260286385,
      -0.22586110021371186
    ],
    [
      -0.23998179020366184,
      -0.11167632304621888,
      -0.5326168524910917,
      -0.4270324297285716,
      0.7366917819206324,
      -0.37409133877600503,
      -0.31165288293660076,
      0.5714233184872363,
      0.97055030448071,
      -0.35014634573262166
    ],
    [
      -0.12518181043521515,
      -0.09557024519005534,
      0.5090801869294456,
      -0.29696916420322383,
      -0.048372854041852355,
      0.24901255943229703,
      0.12699867217413474,
      -0.1879419505652495,
      -0.034894739637685634,
      -0.4762462167677082
    ],
    [
      -0.12328462411847925,
      -0.19613650606403404,
      0.011051590107720353,
      -0.21874812201784852,
      0.1035757889912259,
      0.2822886199097559,
      -0.0063446717624026745,
      0.059696600247005856,
      -0.036026979277036165,
      -0.06980709599385579
    ],
    [
      -0.24769719963225817,
      0.0338906803081469,
      -0.0724333965778626,
      0.6314798879022182,
      0.4797194866875064,
      0.15349276152549082,
      -0.27436569446750925,
      -0.35306074452053904,
      0.32457969076453014,
      0.016308404267211342
    ],
    [
      0.24537343204901035,
      -0.6449069326822978,
      0.3608654529406821,
      0.223646588892299,
      -0.21483735835446838,
      -0.08391658996000433,
      0.18240389165298135,
      0.019543842710788024,
      0.0013822566595054226,
      0.032451467986174265
    ],
    [
      -0.2420028530394106,
      -0.17074535711980723,
      0.2799486244078173,
      -0.8884298366667436,
      -0.23006500366102928,
      -0.12954694135101197,
      -0.06649631414219598,
      -0.2792507923584912,
      -0.6626950082500229,
      -0.029676547471393776
    ],
    [
      0.45413257017840025,
      -0.6505121731185872,
      0.17200633467342558,
      -0.19667377387826918,
      -0.12387432743733445,
      -0.3966702315924937,
      -0.2051307754343155,
      0.33666949122053635,
      0.06589769538772186,
      0.4284065610325387
    ],
    [
      0.30941519482000585,
      0.06275923415268342,
      0.48135893150665354,
      0.07454283768955662,
      0.1888493696511154,
      -0.1320638357017616,
      -0.04771934643803417,
      -0.24994862116275554,
      0.23222613434044184,
      -0.46028500709360853
    ],
    [
      0.1778593091940823,
      -0.25607208434896966,
      0.27605898465586426,
      0.18414598148899575,
      0.5085948950929835,
      0.18831748557793287,
      -0.5752346885009447,
      -0.09672607333682648,
      -0.44696411942636133,
      -0.2666469031437956
    ],
    [
      0.47850645157380617,
      0.16721511305248687,
      -0.21783692170724425,
      -0.3006977453197659,
      0.018428264126100057,
      -0.3497962418368075,
      -0.21179790419434788,
      0.12573049919985435,
      0.3864653871803728,
      0.19849429161027843
    ],
    [
      -0.66934695460681,
      0.5006310300456994,
      0.10040750234275662,
      0.11960884181000339,
      0.4763864548918785,
      -0.6395250999990454,
      -0.13602811122292957,
      0.2736238537658573,
      -0.4706771216745335,
      0.5641306663937938
    ],
    [
      0.013789652977923185,
      0.32237504498039227,
      -0.2708052971923066,
      0.1549754022640043,
      0.20135298556626247,
      -0.015341250736921835,
      -0.02972851800718952,
      0.05729227585032528,
      -0.40400088641284904,
      -0.13276206285288766
    ],
    [
      -0.0923805619834854,
      0.4960862058526766,
      0.3196270034566927,
      -0.412430482371396,
      -0.1776915426068683,
      0.4080480423880859,
      -0.2777655483099933,
      -0.16095196677130433,
      -0.007001809623486332,
      0.2756986522120933
    ],
    [
      -0.05898139029373502,
      0.4074236192497584,
      0.220727935687041,
      0.21557166943304687,
      0.07275380045364467,
      0.7235884383791876,
      -0.14104785248726315,
      -0.6084911523483467,
      0.45370137661051413,
      -0.22103302452734294
    ],
    [
      -0.03333352455309132,
      0.3252734456150884,
      -0.5261581697833508,
      -0.41740821205075895,
      -0.4995783491925896,
      -0.2998397771134064,
      0.08943612100729617,
      0.0705543904840952,
      0.07293020664981342,
      -0.4537082421654054
    ],
    [
      -0.7162992832443147,
      0.07619557512270281,
      -0.11712690363469551,
      0.1697081264139195,
      0.23128802398495313,
      0.06896944041835543,
      0.2521873327344016,
      0.12710940479574429,
      0.1782885501949265,
      -0.19637346884962603
    ],
    [
      -0.06451870217959685,
      0.16735927849597687,
      0.24078072319388122,
      -0.1675110811465646,
      0.13383244169548963,
      -0.15249001579962934,
      -0.049334735714693836,
      0.19394251322172615,
      -0.6641461173238039,
      -0.4096979625089139
    ],
    [
      -0.4232555462182761,
      -1.0964637994468245,
      -0.2215135649054131,
      0.27583934286277956,
      0.004587669924957351,
      0.10783238570989204,
      0.3467436972374549,
      0.3360057779218817,
      0.003739862467782123,
      0.367289041027645
    ],
    [
      0.04152444995326968,
      -0.007474809061951804,
      -0.14563455596414868,
      -0.48803104830900856,
      -0.3313576781872358,
      -0.19246900931507943,
      0.2757317573985379,
      0.5711028779742793,
      -0.40597166171486176,
      0.20116922924314162
    ],
    [
      -0.45245807796613224,
      -0.0014820329545768265,
      -0.1773353967864567,
      -0.6670706949446505,
      0.12649164827723136,
      -0.3381865083919067,
      -0.29377649896066715,
      -0.4585254498873015,
      -0.3201518843903495,
      0.011586090531754285
    ],
    [
      -0.11480365241678947,
      0.040335006685789196,
      0.05901476408581506,
      0.38330319331621526,
      -0.173686305639625,
      -0.4842077106820072,
      0.2775688758635237,
      -0.10253088944959007,
      0.2956098478520808,
      0.0583815345191217
    ],
    [
      0.06813651852083231,
      0.21694711782962242,
      0.6945208497702327,
      0.7271142899736409,
      0.08187392319512354,
      0.1673428593517902,
      0.41516165894951107,
      -0.10660649459788382,
      0.18771326020995785,
      0.06208801124101911
    ],
    [
      0.08096304459665075,
      -0.2593310354315835,
      -0.49540190367972503,
      -0.6634849069774071,
      -0.36734294731582756,
      -0.19453590172504337,
      -0.10533789410259868,
      0.5680208275948491,
      0.34800942478907493,
      -0.2831913519779089
    ],
    [
      0.09623161239773417,
      -0.059953546759324246,
      -0.08479957162293048,
      0.053790670532148414,
      0.15359229897168913,
      -0.08948917716321174,
      0.31813810560417444,
      -0.26932947433141563,
      -0.03400607209488819,
      0.8289008274276322
    ],
    [
      -0.07427946853304429,
      0.5395004732335239,
      -0.07403879620537884,
      0.07264607782715794,
      -0.21003445735562876,
      -0.1578141199774566,
      -0.39424800932657733,
      0.10682671396048819,
      -0.40245999628012546,
      0.10676119567602503
    ],
    [
      0.3311008313088287,
      0.049708672466292014,
      -0.08678369852682491,
      0.15300111086833906,
      -0.045884207424395654,
      0.28114166364472964,
      -0.549999621009718,
      -0.165105083707975,
      -0.5995696804959323,
      -0.45191463997677483
    ],
    [
      0.4001385007139161,
      0.7878049395706193,
      -0.18718963358362373,
      -0.5442969099421677,
      -0.9914510163134692,
      -0.26529883335214377,
      0.721316643757131,
      0.1832000492662283,
      -0.2125612962798975,
      0.20006055481898583
    ],
    [
      -0.34703503886591835,
      0.06311690956905153,
      0.13700415344670439,
      0.07101823381311866,
      0.34516924742701205,
      0.22799817260437252,
      0.31463086065385015,
      -0.09028761890190197,
      0.37484166616265424,
      0.5925287413769151
    ],
    [
      -0.2648283960105089,
      -0.1980948917457504,
      0.4286057004070334,
      -0.058794978053216346,
      0.4093598357493758,
      -0.11898411068297202,
      0.45877010450165545,
      0.12075367697711878,
      0.04521652704065066,
      0.4865803399744606
    ],
    [
      -0.4203175189049265,
      -0.7311060854019003,
      -0.4600993512677528,
      -0.16434766433584308,
      -0.6679434037341633,
      -0.09703210656435793,
      -0.422130395683771,
      -0.14179791202183079,
      -1.0608349474481185,
      -0.5616477323258595
    ],
    [
      -0.40185841369983083,
      -0.5977376426773441,
      0.14033142489034411,
      0.07959043337383157,
      0.13830345059845525,
      0.0751730859995055,
      0.18489543174248302,
      -0.3613289900537032,
      0.3534843317884471,
      0.25445090684668914
    ],
    [
      0.1663956253953066,
      0.26120017654980304,
      0.1562333791016245,
      0.6928601425660638,
      0.018438339224711456,
      -0.05066550695003401,
      -0.18894454060180893,
      -0.2685633167381182,
      -0.33272162464499466,
      -0.2151775677649561
    ],
    [
      -0.0017904119481132565,
      0.15639511778814313,
      0.036540501692108714,
      -0.2350998570889958,
      0.3024453951017745,
      0.25380830178107583,
      -0.02555224862626248,
      -0.1715836029493002,
      0.20860733647464305,
      0.08521259214788804
    ],
    [
      -0.4691047871754431,
      0.12413247753404119,
      0.05356816348467725,
      -0.3428014148879135,
      0.016946966638318413,
      -0.536633971025436,
      0.4070784460767841,
      0.3343271690574391,
      -0.10567000851633634,
      0.11386035992452315
    ],
    [
      -0.6406394589189071,
      -0.5222733906772223,
      -0.015627709396591544,
      -0.25047087452556727,
      0.39078457648394804,
      0.7263806656197929,
      -0.26454805551078203,
      -0.27404153448341106,
      0.17778342047272994,
      0.569112049333367
    ],
    [
      -0.47669438677618636,
      -0.06138611140225532,
      0.464423325909452,
      -0.5810121856475031,
      -0.4804825661138692,
      -0.251009084369094,
      -0.25526057061086704,
      0.13944715369871674,
      0.0069064162101179554,
      -0.6057320642487163
    ],
    [
      0.09889324137011993,
      -0.07599235823015393,
      0.3324174997420454,
      -0.2973793959936887,
      -0.30485160671509903,
      0.06507347682459472,
      0.17632559387707925,
      0.07442348475649221,
      -0.6331507351732448,
      0.112488930711723
    ],
    [
      -0.35784917438251496,
      0.017161346844540612,
      -0.44503924259095595,
      0.09896643588846685,
      -0.28164441780270494,
      -0.4161354995413331,
      0.1816578019249505,
      0.0632379599919701,
      -0.2170126642280952,
      0.4447444113893137
    ],
    [
      -0.11358423790538438,
      0.036418269630466946,
      0.116708754078897,
      -0.1578734545797182,
      0.20645846577324103,
      -0.16429820299447828,
      -0.08972297159171316,
      0.4115558529246413,
      -0.2742053006945684,
      -0.7152243481445227
    ],
    [
      0.4065996605189248,
      1.1828008740853613,
      -0.13953260287183272,
      -0.6684174763086002,
      -0.26513782313996,
      -0.16585971328004642,
      -0.12310951112799762,
      -0.2577629604084306,
      0.13388170691251253,
      0.1668077504006104
    ]
  ],
  "b1": [
    -0.1939962817563974,
    0.27175051038212006,
    -0.0019359952137863942,
    0.06006411793084456,
    0.12535540907401882,
    0.10646888434551,
    0.03689834986717753,
    -0.2795443589098354,
    0.15100198003327592,
    -0.48099796690813373,
    0.15539119604956397,
    0.12107729935772162,
    -0.026345534402023557,
    0.16220590236882593,
    -0.022797971407876667,
    -0.0611896089197177,
    -0.15011319635339912,
    0.06166655816494609,
    0.09873413210007087,
    -0.1490156481046861,
    -0.651421102040193,
    0.05129025093676186,
    0.12068485486683422,
    -0.4984831118012581,
    -0.01162650773392928,
    0.10455255064343841,
    0.051335853231539254,
    0.23050843277500324,
    -0.16764804104239048,
    -0.7029767161225116,
    0.16836168592871056,
    0.10963982280488702,
    0.10272886961683908,
    -0.05040569144339693,
    -0.014127820146895712,
    0.10739164685389427,
    -0.045560018067688834,
    0.12018505690759454,
    -0.505567455462814,
    -0.010912188343152178,
    0.22096205737115834,
    0.018333594023687016,
    -0.1393746149686368,
    -0.673912873821388,
    0.0478253794405392,
    0.5696341971831105,
    -0.29120192447535653,
    -0.040684784490513354,
    0.18411186848751096,
    -0.33031802024276935,
    0.02458194039848724,
    0.5009624064267229,
    0.4007152702096933,
    -0.6110095829483848,
    0.02836504025528132,
    -0.10011840859475944,
    -0.20111907739273854,
    0.09118374066873866,
    -0.09545776284160379,
    -0.5215940030349913,
    0.13772455373655104,
    -0.39158982778443885,
    -0.27201733283236595,
    0.038261404226864866
  ],
  "Wa": [
    [
      -0.35988483934688115,
      0.22348138687471797,
      0.26700998059957326,
      -0.029346592867864812,
      0.056397231364251545,
      0.2572710730286541,
      -0.2600393955100574,
      -0.48790912283278726,
      -0.20805329769634345,
      -0.1736676010862019,
      0.4757031018834632,
      0.056712286351551885,
      0.15770618073430168,
      -0.3156980178079435,
      -0.29309448654431447,
      -0.2995272109360094,
      -0.18590423419136978,
      0.24824589083577348,
      0.1789347792144743,
      -0.04465354134304522,
      -0.2545126670450685,
      -0.3512002998727229,
      0.061110662906412316,
      -0.206056668573111,
      -0.1422042728621249,
      -0.2075114487521521,
      -0.30712349038792053,
      0.006375521714023692,
      -0.4203152911789961,
      -0.3933570870259635,
      -0.04937580822365622,
      0.06749936729217437,
      -0.24778695383507035,
      0.027570974372556498,
      0.3568269339653706,
      0.21822047869183758,
      0.5147940166636689,
      0.07821294884071403,
      0.10205947011354517,
      -0.08912080244088852,
      0.2419400978312875,
      -0.49964099270357326,
      0.18578286347227363,
      -0.15313933796089774,
      0.03075602054891012,
      0.001062586122526147,
      0.02766406058227223,
      0.19106909695485455,
      0.3372930893693189,
      -0.1149269368375032,
      0.5995949980066675,
      0.06166838283791241,
      0.11859914848875056,
      -0.4100225678957325,
      -0.4293717299971095,
      -0.05454668361315859,
      -0.2703610927629061,
      0.0567470568086758,
      -0.49160546279200223,
      -0.08917650465353613,
      0.21255986360101314,
      -0.05896072594125545,
      -0.16607900698467196,
      0.717011803369082
    ],
    [
      0.18736882558659185,
      -0.19819688462101848,
      -0.13106137390456513,
      0.03259438599280889,
      -0.07603019018666046,
      0.08734184837657072,
      -0.007759285042267751,
      0.17474744195499026,
      -0.12332067905171856,
      0.11800441298722675,
      0.00810397502289121,
      -0.1491752493194643,
      -0.21553567838918522,
      0.0344686186612498,
      0.0005529022877824783,
      -0.08873274651300289,
      -0.024215464879506928,
      0.1553605528557268,
      -0.3458533398644096,
      -0.1880589927234106,
      -0.013869865122469667,
      0.1687610575915353,
      -0.012517481531887467,
      0.1777626592452411,
      -0.11152054296913907,
      -0.14509436936166561,
      0.03722189056264416,
      -0.06984049565914324,
      0.09240500236145438,
      0.07840966107359464,
      -0.025204930887145406,
      -0.03802125384343465,
      0.05435705701476737,
      0.10630714885779141,
      -0.18730475049809714,
      -0.322367285601,
      0.11913289203610361,
      0.09916858986521249,
      -0.028023281011877565,
      -0.2216381861425364,
      0.011805579020553668,
      0.10716412671280579,
      0.2937267842172471,
      0.17219207438669853,
      -0.07679391281550527,
      -0.20219052161774492,
      0.09620477179185698,
      -0.07716401776051973,
      -0.1574579245596493,
      0.3180132877388854,
      0.24167137042640877,
      0.03809610438435797,
      -0.19452179031883476,
      0.1615304674011551,
      0.10055782607851445,
      0.06967916663876761,
      0.15883414586513434,
      0.08193136047906757,
      0.12419161287683944,
      0.1834116175277426,
      0.014021783761444374,
      -0.1281746684620904,
      0.07694986580785651,
      -0.06826718548870786
    ],
    [
      -0.07676316359566673,
      0.10022956104251451,
      0.19080950978610622,
      0.10885404695314788,
      -0.03861671450657367,
      0.18655691307367694,
      -0.0021563512340237075,
      0.14953530642967156,
      -0.12971654429255342,
      0.20817572144968366,
      0.05590944495349193,
      -0.1778564388414123,
      -0.027714402558658122,
      -0.0922033620534792,
      0.2816362038243344,
      0.17652011996554084,
      -0.017714441217587473,
      0.04557374460234651,
      -0.07563754345550747,
      -0.028530957207971868,
      0.0047908290671905595,
      -0.027277970246394292,
      -0.14904157751202263,
      -0.0337638666957987,
      0.09319414598994846,
      0.043299813490297386,
      -0.24661829036566527,
      -0.12223310206924252,
      0.163845572581427,
      0.27071617758606825,
      0.03877056132416264,
      -0.08047403572845144,
      -0.14977053954223768,
      -0.14814097031453716,
      0.07629201801836254,
      -0.0006492225562130356,
      0.1363232444521425,
      0.05876138119118132,
      0.11503321482386668,
      -0.1342919294573074,
      -0.021605762416492466,
      0.0327834784708808,
      0.07249590656489921,
      0.06910499105560372,
      -0.013726667658138505,
      -0.1847676505010866,
      0.04682558284097351,
      -0.029582221815510394,
      -0.08397150525971052,
      0.12620747796255527,
      0.04703696277595409,
      -0.287714182662948,
      -0.17125280713389465,
      0.27356565599532623,
      -0.11981853398701864,
      -0.23341878915805245,
      -0.24408513247766647,
      0.01384191612154786,
      0.043632961914135945,
      0.12983650311838285,
      0.12323555951541214,
      -0.20129557812711546,
      0.15377562903240016,
      0.16518717954536616
    ],
    [
      -0.10732753775775214,
      0.0026419395901489976,
      -0.06198142627092579,
      0.037321140663077436,
      -0.02048905991682587,
      -0.12072084936151613,
      0.5763362606941722,
      0.018357636253124754,
      0.453703200108008,
      -0.1487601356966608,
      -0.10831502764505282,
      -0.07793240124030348,
      0.10857769739858902,
      0.3569019169850084,
      0.6624955842568145,
      0.3420671981712326,
      0.020203480832451777,
      -0.13378016928595193,
      0.0693262081653852,
      -0.05289332896140526,
      -0.08499266296980057,
      0.3751734313284688,
      -0.03547141061424119,
      -0.039361375883893636,
      0.11378770138401847,
      0.05818631288393993,
      -0.09491999314298512,
      0.32122672571128325,
      0.16902747733162432,
      -0.3477050928102101,
      0.2896118480478018,
      0.12016880357911881,
      0.15886807042591883,
      -0.0810482652662928,
      -0.4685184964478812,
      -0.13590167643310058,
      -0.25939957102596367,
      0.09652033910159119,
      -0.24985493519244087,
      -0.0898068526015886,
      -0.06701656835368475,
      0.5892130113628735,
      -0.4325943002171456,
      -0.4058465893577158,
      -0.0110552710113993,
      0.12375072953458169,
      -0.16184856327139846,
      0.10099965689426149,
      -0.3021563019871,
      0.02267316137316599,
      -0.7306352377244704,
      0.010310519134448602,
      0.05425523316122646,
      0.01616839959467678,
      0.43560609146725937,
      -0.1426967684884826,
      -0.323667388467623,
      -0.40291411060194315,
      0.20162322246291564,
      -0.25401388025095883,
      -0.06737239421085447,
      -0.194434663847897,
      -0.1725221252621113,
      -0.5642278833902024
    ]
  ],
  "ba": [
    0.16173150563974587,
    -0.12948515046275752,
    -0.16851418250699432,
    0.13626782733000642
  ],
  "Wv": [
    [
      -0.07626049430481979,
      0.11393393408264897,
      -0.022637878515476228,
      0.01888434845479848,
      0.04857409987361396,
      0.15086166694147976,
      0.024147282802449856,
      -0.05520704778335265,
      0.11800357512220162,
      -0.34416001238897276,
      0.13167127602963266,
      0.030352255941790876,
      -0.043328765285293634,
      0.06306408639495054,
      -0.03416622725225573,
      -0.020354819358707234,
      -0.16507485251005286,
      0.03509267074890754,
      0.04632007850575197,
      -0.11523069401043776,
      -0.4604297956012176,
      0.0480665941513782,
      0.01647355006777302,
      -0.5794011125179558,
      -0.08632359029973266,
      0.0673407029098958,
      0.03429850507909328,
      0.033749133030474936,
      -0.1124994005938875,
      -0.5756481860966625,
      0.08514717502458298,
      0.011565568723021443,
      0.10585130935252997,
      -0.06869505710282675,
      0.012105003415415795,
      0.08870389628124167,
      -0.04323010746890464,
      0.07610878769221731,
      -0.3310191116659238,
      -0.01423434731540121,
      0.20994295847869324,
      0.03236608987723686,
      0.019809300113886156,
      -0.6886980037744502,
      0.00402445241427937,
      0.6240077145321963,
      -0.1228056790018675,
      -0.10413244974482935,
      0.21020746464141674,
      -0.15905186474424965,
      0.03853624416904406,
      0.18426480851991542,
      0.2160672562433432,
      -1.556244705707358,
      -0.016995195401781786,
      -0.025026504694225744,
      -0.1852694066375811,
      0.07433516523675539,
      -0.06725366596152575,
      -0.3585095987954825,
      0.12507109815293027,
      -0.1468034218204418,
      -0.13167130475254707,
      0.01451334191804184
    ]
  ],
  "bv": [
    0.6530798305468712
  ]
}