{
  "W1": [
    [
      0.06492218588727314,
      -0.3470533660761963,
      0.2089800684360696,
      0.2876421511265732,
      -0.6137573439468829,
      -0.4285392996593906,
      0.03896071404748726,
      -0.13492045341462758,
      -8.715258779889773e-05,
      -0.26739603682692437
    ],
    [
      0.24817914376524736,
      0.29565837702629927,
      -0.00979184908910623,
      0.31293628320775335,
      0.0888897288052034,
      -0.29503661352209026,
      0.08895717297596899,
      -0.2892566866984816,
      0.2164159951171083,
      -0.04083720891435298
    ],
    [
      -0.1117346741709454,
      -0.08616477049613633,
      0.34540948209871347,
      -0.1377101197792664,
      -0.23227151466152182,
      -0.19003414602018792,
      0.10711217657291612,
      0.10190961428900142,
      0.02207007896797545,
      0.10144217297769466
    ],
    [
      0.7235810234935043,
      -0.03081707488532119,
      -0.1300217584234284,
      -0.20259597633448673,
      0.21472886538663744,
      0.4084200118029553,
      0.019632117654131823,
      -0.19178016541444992,
      -0.20547029715057546,
      0.25125360821686604
    ],
    [
      0.1750086954324891,
      0.11479619528288897,
      -0.2743368091640264,
      0.007224462738998849,
      -0.040420348167715454,
      0.01757067382384188,
      0.20527353313457344,
      0.029367182362821476,
      0.1483905976166536,
      -0.05079708482003982
    ],
    [
      0.059121157731462315,
      0.2201311036529289,
      -0.4802599190686826,
      -0.13891595914824317,
      -0.17547514558407676,
      -0.24797048600651042,
      -0.11821966551394678,
      0.4265929523795612,
      -0.300117122015521,
      0.2882943158548764
    ],
    [
      -0.5099362230331127,
      -0.39373135697975475,
      0.03675068150913666,
      0.22549017172286828,
      0.2795065360044782,
      0.3001676574394398,
      -0.10539742068028761,
      -0.18064794240407567,
      0.2838652280294251,
      -0.10151937507278236
    ],
    [
      -0.3709302513506348,
      -0.5477365780482644,
      -0.26509472162264347,
      0.2176497119867975,
      0.12333570643655836,
      0.2596730967838654,
      -0.1153211649191884,
      0.00700452455341006,
      0.28453965919805646,
      -0.10361170761925435
    ],
    [
      0.1758228087834739,
      -0.46927167202169545,
      -0.11291773592491083,
      -0.06893319400806763,
      -0.2894228459659754,
      0.20260178664137435,
      -0.1230612970069434,
      -0.048386155324737404,
      0.16703251415735698,
      0.12307918592511932
    ],
    [
      0.10118450294553455,
      -0.13331044592802116,
      -0.20874829858518332,
      -0.11176050985062774,
      -0.5996528465829492,
      -0.5271336359401777,
      -0.49500956591782885,
      -0.38943409342863206,
      0.0457413287755893,
      -0.35588068018336594
    ],
    [
      -0.0858548691965583,
      0.5487014376631303,
      -0.0763080642104045,
      0.24033189197384086,
      -0.2668251835774583,
      -0.06536497455723977,
      -0.26862015144882867,
      -0.08846534007957946,
      0.2614752339777302,
      -0.4899214625617718
    ],
    [
      0.1716920901474405,
      0.09541934344369622,
      -0.1710679931974523,
      -0.42983423958874317,
      0.053759610134514774,
      -0.13668623668973676,
      0.11028771565924754,
      0.03134989010868203,
      0.5216916617829259,
      -0.04825737406272769
    ],
    [
      -0.31341245581991106,
      0.11103951522716657,
      0.07757973221198769,
      0.4282622159481383,
      0.2515123142757836,
      0.13159202165187175,
      0.4675146633655679,
      -0.32763100454217187,
      -0.24821403082340163,
      -0.27881786328555414
    ],
    [
      -0.14179378870468243,
      -0.6743986263280928,
      0.17140831038837412,
      -0.07131157386406234,
      -0.45737831214494107,
      -0.2886354269067465,
      0.07675150676950152,
      0.23641445543069028,
      0.6393264956920619,
      0.8531171592235736
    ],
    [
      0.25410962122135294,
      -0.4898490017739777,
      -0.5731007046385098,
      0.25872908549598406,
      -0.06586545324171722,
      0.02719048134213759,
      -0.059594032227527446,
      0.01044753412273277,
      0.4738117833891873,
      0.13222024589304282
    ],
    [
      -0.004622313844261644,
      -0.45079138939741503,
      -0.4887861674058256,
      -0.09059493782925301,
      0.07065641385629534,
      0.6185453725978851,
      0.08373283106289402,
      0.303577214184789,
      -0.11428468511976464,
      -0.35081783294855906
    ],
    [
      -0.3223816857321821,
      -0.29711182183003526,
      0.6558007783607234,
      -0.26610925087756715,
      0.254484257648422,
      -0.29044063128538183,
      0.2749853858228485,
      0.10545819240995696,
      -0.05176946678635866,
      -0.03940858178447038
    ],
    [
      -0.17942413097371165,
      0.23769978588964064,
      -0.10904653339612301,
      -0.3552614099266721,
      -0.3772595637896686,
      0.07579796752222291,
      0.5367911575282921,
      0.08260935366063864,
      0.008233544042208395,
      0.14079189636517708
    ],
    [
      0.3954771029085056,
      0.051657828765970665,
      -0.1560666759880971,
      0.3053883361457693,
      0.08623456783268718,
      0.46222702760135975,
      0.03252950265627394,
      -0.37482214632556854,
      -0.5220291961091245,
      0.48718433806868405
    ],
    [
      0.5305937403966425,
      -0.04731253432812697,
      -0.12340827954387365,
      0.45445107211194136,
      -0.37341372205367734,
      -0.282891641824899,
      0.18712078405609434,
      -0.1036639121100605,
      -0.028762867864023066,
      -0.05808783375024341
    ],
    [
      0.12356690343514251,
      0.41645828986486855,
      0.06092306518080415,
      0.24982512042583155,
      -0.60151210839658,
      0.01730058241960879,
      -0.2409194064540421,
      -0.37254366584343956,
      -0.23609130622813707,
      -0.07029174270128209
    ],
    [
      0.2506251448986838,
      -0.6307974480562359,
      -0.04116327483791739,
      -0.17814278144029333,
      -0.11128173636457563,
      0.28369870084279714,
      0.12284316916107547,
      0.3372094451626692,
      -0.06927101471592621,
      -0.2957119065991031
    ],
    [
      -0.08012300818615414,
      -0.003072520552771819,
      0.04702146796908284,
      -0.3394859480484156,
      0.008495075810821089,
      0.09301892099282477,
      0.7428257730247095,
      0.5831827211064107,
      -0.27466061931421437,
      -0.11591272021457888
    ],
    [
      -0.62516832545361,
      -0.33686457764990796,
      -0.07697585479010965,
      0.17852743223161713,
      -0.35760110200981154,
      -0.3799455796930965,
      -0.7906912518843872,
      -0.25528821740630203,
      -0.5034829162897889,
      -0.31277488348424526
    ],
    [
      -0.24570682715635536,
      -0.09673715654282557,
      -0.5332024323858615,
      -0.4216262539937199,
      0.7259549904186811,
      -0.36584962926945774,
      -0.3163036219382162,
      0.5892203236678514,
      0.9631948591222494,
      -0.35731259438340346
    ],
    [
      -0.1030257943177958,
      -0.040648393104534046,
      0.5452246516049348,
      -0.27483192933566086,
      -0.027286787059742135,
      0.2816419309211426,
      0.15668311269271348,
      -0.14923449749369316,
      -0.006546336681012948,
      -0.44505448947062365
    ],
    [
      -0.11173314097181622,
      -0.15398315250168015,
      0.030597398687446688,
      -0.2135034309639435,
      0.10947069395936679,
      0.28372790453827,
      0.007511449330279922,
      0.0715245232562309,
      5.811164373693004e-05,
      -0.05339456174170862
    ],
    [
      -0.24938682846184337,
      -0.009173690635672709,
      -0.06821943195917496,
      0.6439734631179392,
      0.47901229202597434,
      0.14693157478859908,
      -0.27116965708525903,
      -0.35863814148017326,
      0.3421211002440297,
      0.028505843598576684
    ],
    [
      0.22041612965916185,
      -0.5400191161756129,
      0.35480802806345657,
      0.23300368740649913,
      -0.2599055798078413,
      -0.07432295257518295,
      0.1655260051526835,
      0.07188211102928495,
      -0.0005098273389869449,
      0.0300466980373513
    ],
    [
      -0.13425937761193218,
      0.009559980309710326,
      0.4324770458883832,
      -0.8080073404635064,
      -0.1052669015639156,
      0.017987280915034945,
      0.05306984825182634,
      -0.1534866820717869,
      -0.5513200632848205,
      0.08243318074586661
    ],
    [
      0.4844820952563058,
      -0.6044782705826661,
      0.2003630923821418,
      -0.18344685378634035,
      -0.09425971283284137,
      -0.3975695337889741,
      -0.17796061186491552,
      0.3408479463906861,
      0.09807308735825282,
      0.457769829076823
    ],
    [
      0.365236841478441,
      0.12310411133978058,
      0.5330878630936091,
      0.11389284762568597,
      0.2394774016384493,
      -0.10784054576291162,
      0.0003969965286857249,
      -0.22810967978169644,
      0.30214122483841493,
      -0.398015505499447
    ],
    [
      0.207196291429615,
      -0.19011903798639346,
      0.3123304212135122,
      0.194905643034929,
      0.5354643996617939,
      0.1966806031980377,
      -0.5439978588869671,
      -0.07948582017788756,
      -0.40946153222167325,
      -0.23526480629022628
    ],
    [
      0.4607605686791455,
      0.12017739077101253,
      -0.24057898874452327,
      -0.3241630513214845,
      0.00532270199012431,
      -0.38789912202751053,
      -0.2296958749009294,
      0.07707152463896608,
      0.37878967958300325,
      0.1688871336844422
    ],
    [
      -0.679205336682633,
      0.39221978909630306,
      0.07937214091147973,
      0.11782393367431987,
      0.4916134870972106,
      -0.6440582465185958,
      -0.14868212864357738,
      0.24334580719668217,
      -0.5032308824717977,
      0.5462967775626479
    ],
    [
      0.03988973346736232,
      0.26737419709835697,
      -0.25026055367200745,
      0.15957839700887866,
      0.23481200760723958,
      -0.002666284344522109,
      -0.013162006184446715,
      0.0482867956202494,
      -0.4058641123048874,
      -0.11559991562997794
    ],
    [
      -0.12204783282678078,
      0.3444609526680429,
      0.26755449957787136,
      -0.46160704900961,
      -0.17669974800257174,
      0.3401852777635996,
      -0.3181627058807599,
      -0.28660236968740466,
      -0.052280953514739846,
      0.22901026060020802
    ],
    [
      0.14749879357514958,
      0.5911615936546017,
      0.3904570135779576,
      0.3509841657220348,
      0.23241491546791274,
      0.8208067216931789,
      0.05128209576964289,
      -0.43377386348312286,
      0.6226924179963222,
      -0.03747341706241598
    ],
    [
      0.07638784665398057,
      0.5253760634094045,
      -0.44232465518857256,
      -0.34149266587149657,
      -0.4510267183027195,
      -0.2190162994623358,
      0.18914376098550661,
      0.21130973746416712,
      0.137944432026485,
      -0.3670754761219899
    ],
    [
      -0.736466478541648,
      0.020597119437317384,
      -0.1502526735370821,
      0.13262988557727245,
      0.21917134941631297,
      0.03280968534319531,
      0.22953749263485898,
      0.06453046328008254,
      0.1429353797254545,
      -0.22619201393760652
    ],
    [
      -0.023567811416643058,
      0.16042642757608244,
      0.2838674366760108,
      -0.1178675265381884,
      0.19360645552227604,
      -0.090210446188672,
      -0.0003965950881380196,
      0.2561343743173008,
      -0.6292852174074386,
      -0.3668874232102456
    ],
    [
      -0.43362377681238995,
      -0.9554772757209524,
      -0.21358069977667668,
      0.2724124746903338,
      -0.028164162992534134,
      0.1077229656232391,
      0.35309508004804824,
      0.387638837103921,
      0.012170045852904116,
      0.389671734712575
    ],
    [
      0.03399499714084236,
      0.0050210831883431666,
      -0.15594187294363152,
      -0.505452873780527,
      -0.3242511898675987,
      -0.19652269825906934,
      0.2632857416847554,
      0.5513549725623257,
      -0.4275323873182243,
      0.18099986592430534
    ],
    [
      -0.3915543576488117,
      0.1578776290371652,
      -0.08254305563891806,
      -0.6039575166679334,
      0.21822803763315735,
      -0.2516751942568391,
      -0.2189750875137635,
      -0.37184574532834314,
      -0.23623747563701525,
      0.0979728437447841
    ],
    [
      -0.10330785014724662,
      0.048224958601246266,
      0.07182981354920939,
      0.3818412781368056,
      -0.1602716773885621,
      -0.48789078475096537,
      0.29280894752610465,
      -0.11687905687841638,
      0.3138761464170982,
      0.07269760408599746
    ],
    [
      0.12936342396267275,
      0.25747774967923404,
      0.729806981896715,
      0.7672574184046723,
      0.1395847361759335,
      0.19107366947034043,
      0.4593646855746898,
      -0.0744473179213681,
      0.24316185605196583,
      0.1228462487706084
    ],
    [
      0.12546024809552064,
      -0.1935272758382613,
      -0.4681382594149246,
      -0.6360895960088031,
      -0.3329778595199277,
      -0.15160504290599067,
      -0.06896462807648215,
      0.6261588159690592,
      0.378109707446598,
      -0.2613886781092411
    ],
    [
      0.13653423063948028,
      -0.08418486282774727,
      -0.08306353170973699,
      0.06070890423229603,
      0.18307864323911083,
      -0.10628881922903316,
      0.334056831985062,
      -0.30699396906842524,
      -0.022182261732267793,
      0.8224557624733917
    ],
    [
      -0.03764435229050134,
      0.4506616915744962,
      -0.058742988275956434,
      0.05907382301737943,
      -0.14446338117813654,
      -0.16871131454468308,
      -0.36040582203584093,
      0.049542051136104374,
      -0.39667509813157636,
      0.12365533554922366
    ],
    [
      0.2553657363610713,
      0.015932470841422904,
      -0.13507971315287975,
      0.1017444598045718,
      -0.11541747553946374,
      0.25598856207167014,
      -0.5960312000705315,
      -0.1766973210506951,
      -0.6519660584687536,
      -0.4990095115218594
    ],
    [
      0.40587627286419653,
      0.6582357348607175,
      -0.1973048978870716,
      -0.529447647793102,
      -0.97174859797214,
      -0.24846961739632112,
      0.7347705250973087,
      0.17235911834685896,
      -0.1866872700479723,
      0.20435365303166067
    ],
    [
      -0.45663825778904277,
      -0.059677242872019656,
      0.0742094013569629,
      0.024126667198440928,
      0.28132957792591545,
      0.1975737078112504,
      0.2617108102776553,
      -0.1345092292949535,
      0.34561368780348417,
      0.5580877998215492
    ],
    [
      -0.19049240201223389,
      -0.1635499279356094,
      0.47845551159425487,
      4.78988799806014e-05,
      0.4851573835019478,
      -0.08320715717515319,
      0.5050108487708649,
      0.14272435065121508,
      0.11247234192518793,
      0.5407163105466847
    ],
    [
      -0.4044523179161762,
      -0.626431463505447,
      -0.4137972826216161,
      -0.13496232430788108,
      -0.6785995548128303,
      -0.07472559519874158,
      -0.4032754032403034,
      -0.039529346814743016,
      -0.9871479282395935,
      -0.5069928872987338
    ],
    [
      -0.3899059508910511,
      -0.4230414014816298,
      0.17147881286482286,
      0.11953844045080098,
      0.1100367753778827,
      0.11660026492169119,
      0.2062483641911581,
      -0.25341898783459477,
      0.3897610187796047,
      0.2915509834391765
    ],
    [
      0.14743256453258552,
      0.2326360872673034,
      0.12529043748903118,
      0.6708692744878553,
      -0.0011632411602121695,
      -0.07937669003755131,
      -0.20935705336155783,
      -0.3003749552487159,
      -0.3548161035077492,
      -0.24332616914418664
    ],
    [
      -0.033676054667767866,
      0.15039189024524863,
      0.015041485103032857,
      -0.24076140325126213,
      0.26264386073201107,
      0.23249358666760853,
      -0.055624887035746154,
      -0.17950915962838143,
      0.22003102065970864,
      0.0580888625152267
    ],
    [
      -0.4239384060854655,
      0.17387128859259185,
      0.12198201559784257,
      -0.2569028600353807,
      0.06552296914962652,
      -0.44497763493665027,
      0.46430091724304406,
      0.44292001400941866,
      -0.022664753179626018,
      0.17613784153485795
    ],
    [
      -0.6798426072333588,
      -0.4344137065689944,
      -0.03462434481396111,
      -0.2586500655139096,
      0.3353234123576403,
      0.7107926142339688,
      -0.2918446408990565,
      -0.2511754320102893,
      0.16891612177110793,
      0.5541336789591333
    ],
    [
      -0.35752256583175634,
      0.16086313608856362,
      0.6096935901352372,
      -0.49457012071606193,
      -0.3804692307416359,
      -0.14885449095658934,
      -0.13227963345598726,
      0.27717767393670234,
      0.12034753638523465,
      -0.5035043514304838
    ],
    [
      0.13349166799422424,
      -0.06775282230616975,
      0.3756393932549579,
      -0.25627138646575154,
      -0.26117830379195456,
      0.114019211722962,
      0.21267714329963805,
      0.12372640837577992,
      -0.5974182396614588,
      0.155947174951773
    ],
    [
      -0.3239178846097147,
      0.12489145264296847,
      -0.4301800523627564,
      0.1087547185987347,
      -0.2588550143773598,
      -0.4283855582186219,
      0.21305660181691674,
      0.07114039518249321,
      -0.2311312026716507,
      0.46787913488913113
    ],
    [
      -0.1539684155574485,
      0.007451235487623032,
      0.09277054168238283,
      -0.17957365065786465,
      0.17193016356861768,
      -0.16340252065850877,
      -0.1254396653964799,
      0.4071413318724775,
      -0.3041750514057419,
      -0.7395965125522235
    ],
    [
      0.4435932740131433,
      1.0329734631897791,
      -0.1377737756914315,
      -0.6637982160197617,
      -0.19672456230601965,
      -0.15264914182171607,
      -0.09910171250439787,
      -0.31580513665334803,
      0.12888899330584272,
      0.1746367143066656
    ]
  ],
  "b1": [
    -0.45232708636017693,
    -0.07248184336357522,
    0.045556477057230656,
    -0.2686992482314161,
    0.15159909528927487,
    0.10508954591302641,
    0.04472508631883253,
    0.046773436734883087,
    0.11422530603215342,
    -0.367191438450624,
    0.09184953272086704,
    -0.05222795492457177,
    -0.06830087740919093,
    -0.015755008480055586,
    -0.09116125737816416,
    0.005999295207530823,
    0.017662769121159532,
    -0.04995986953506823,
    0.309247761584952,
    -0.014040429572522117,
    -0.13743408451939357,
    0.10442435729214827,
    0.3962536682580144,
    -0.6945296625162831,
    -0.017561953027726496,
    -0.02499336467215301,
    0.05135832947072275,
    0.06355800270579132,
    -0.21995867476774733,
    -0.3211013869121757,
    0.14215349963173296,
    0.30575589543694887,
    0.07468145442943992,
    0.05791183488106919,
    0.019794958988420083,
    0.09745085245353328,
    0.14676776958561435,
    0.6209178497528651,
    -0.12776865708319826,
    0.07619112383496562,
    0.03560022639163957,
    -0.019813854350475377,
    0.013146845199044906,
    -0.4394628429928848,
    0.038987923166593934,
    0.6519832256140861,
    -0.060868004258665905,
    0.30689443542898437,
    0.2047857144880093,
    -0.4473289716826554,
    0.04333674440338134,
    -0.14159889788229868,
    0.5093242383539001,
    -0.7959192840328551,
    -0.13530656319845089,
    0.0044190361539474185,
    -0.09107100254965332,
    -0.12031598555078737,
    -0.11457466711740748,
    -0.0016027119021555054,
    0.001190418610046497,
    0.10559067865361807,
    -0.28625491443365497,
    0.023861925825226914
  ],
  "Wa": [
    [
      -0.27882141313517317,
      0.15890847100561856,
      0.23966265339462647,
      -0.013286518019492278,
      0.011175050418907578,
      0.24152210995883616,
      -0.19810734960323842,
      -0.5268915095890712,
      -0.14472482491514777,
      -0.08413459788489275,
      0.38713151439536286,
      -0.007147436622570129,
      0.15155388535623524,
      -0.3150734418150525,
      -0.1970588654274122,
      -0.19949124486872627,
      -0.1889166866623826,
      0.19527343087306095,
      0.1798643998676438,
      -0.05375101546415158,
      -0.0952663849745271,
      -0.24593903279641133,
      0.0193724387546175,
      -0.11984159200239572,
      -0.18673486148593685,
      -0.21236041614533227,
      -0.2750844458620205,
      -0.07124942050198557,
      -0.30789649172656886,
      -0.25667076410322565,
      -0.017814612784575523,
      0.023289031899064075,
      -0.1729138238799431,
      -0.04017860536554529,
      0.3123390639313109,
      0.18400362068251833,
      0.447901689293883,
      0.026176273153460498,
      0.2038936219089421,
      -0.10385230501828094,
      0.25237046537663765,
      -0.34191856688971456,
      0.2591982255612768,
      -0.03902155572911903,
      -0.02990792290648675,
      -0.06097710328798685,
      0.07495191643038655,
      0.16824970473542444,
      0.2769213412142614,
      -0.04137121546338037,
      0.47164226041693424,
      -0.06537985662516968,
      0.07347847992494014,
      -0.31936807771094533,
      -0.36352145437918215,
      -0.03780870385745981,
      -0.29664806431348256,
      0.015888559405894682,
      -0.390271248270199,
      0.027651379509105838,
      0.2438413494206132,
      0.07714078400490121,
      -0.1203676723625961,
      0.5341843508794695
    ],
    [
      0.1338880483137347,
      -0.0981253363813057,
      -0.11441529574767798,
      0.018456177567131717,
      -0.017551522141065968,
      0.06914470612377477,
      -0.0021655466977977093,
      0.10247360331577363,
      -0.13980556298873928,
      0.032543344059734705,
      0.04560547540556871,
      -0.09543424393057234,
      -0.2126293830758495,
      0.10063990253483879,
      -0.009931909992278056,
      -0.1678992791582242,
      -0.02792531338789722,
      0.16356415882601688,
      -0.3301847176292697,
      -0.17546380030781722,
      -0.09014629076964717,
      0.12134086316434954,
      0.017787312842927294,
      0.09834069445017718,
      -0.05717441551427612,
      -0.15205214207059384,
      0.028379892822501217,
      0.01620952835712672,
      0.04697997651501311,
      -0.03467277336852989,
      0.003940368155018829,
      0.03746857376799026,
      0.019053952007764042,
      0.1508089295727772,
      -0.20373428757820833,
      -0.3180773911331606,
      0.13170832464229415,
      0.16355694543571356,
      -0.07497147954852085,
      -0.2076257707039701,
      -0.0435938314407209,
      0.06136513907806728,
      0.20584853992615865,
      0.08091819233085691,
      -0.0010733160233327755,
      -0.11831474665874431,
      0.03346642238190241,
      -0.03386914526135,
      -0.14560613819827295,
      0.22922965223943353,
      0.2615258740541732,
      0.13594016658697597,
      -0.12544056827981193,
      0.07901017628657653,
      0.10392182258033011,
      0.044373089709131945,
      0.17701489676587584,
      0.09422245647948367,
      0.07389556013863571,
      0.12074015630129561,
      -0.03457769079091226,
      -0.19597205476310914,
      0.00039672037917433856,
      0.004611960477428429
    ],
    [
      -0.0824585889477636,
      0.13983497619166158,
      0.19683569751282143,
      0.1069577339185897,
      -0.03737192218012951,
      0.18225842926272384,
      -0.0008099189475714254,
      0.10411402990363883,
      -0.13596575879540965,
      0.18933832065641107,
      0.0755642212144304,
      -0.1691780005626875,
      -0.022383487598940495,
      -0.07781446148407001,
      0.2783310135701034,
      0.15156084251844912,
      -0.00977462718412278,
      0.05521712192050297,
      -0.08100795609928702,
      -0.03426188664834234,
      -0.025658503716947605,
      -0.057248474037632946,
      -0.1602903136269888,
      -0.04196763803037776,
      0.09799394430448036,
      0.05145047747634668,
      -0.2560543858822457,
      -0.0926330179472003,
      0.15470783984550518,
      0.23348648169197492,
      0.034430057028035047,
      -0.0740570648967394,
      -0.16594007416559214,
      -0.14786781582080397,
      0.09278625603838278,
      -0.006083036676979549,
      0.15973183665968088,
      0.05844586272045952,
      0.09304635370790004,
      -0.12206773367452416,
      -0.02376438464289614,
      0.006376103499312401,
      0.0425276897286278,
      0.0450039764912729,
      -0.0038428070691875807,
      -0.16890985731125102,
      0.017848350928346392,
      -0.02413997977914531,
      -0.08177015458025637,
      0.10693194830702706,
      0.05620697009771737,
      -0.24118478129624463,
      -0.15655116964669147,
      0.24950738040113957,
      -0.11182880365353931,
      -0.23658862333599576,
      -0.24113666699889208,
      0.02031435637041208,
      0.048078970624532424,
      0.10162880871349624,
      0.1149912405928937,
      -0.24415420445807706,
      0.13540100622020262,
      0.20240652966375447
    ],
    [
      -0.129214761344505,
      -0.07246210792961179,
      -0.05730636494958277,
      0.037295587274940464,
      -0.03499033934352039,
      -0.08247626022794849,
      0.5074640441564315,
      0.17503513817465594,
      0.41310882576669083,
      -0.13399466917720448,
      -0.07689971680056709,
      -0.07649212193379752,
      0.10649278250360236,
      0.27571715654911877,
      0.5802499656742055,
      0.3461570421962632,
      0.01898596777839016,
      -0.09865469261168586,
      0.05809837792085529,
      -0.05066011781552179,
      -0.13751318660902606,
      0.3473028624705823,
      -0.012789244722295083,
      -0.037950716324966334,
      0.09917236423843503,
      0.06184238899999896,
      -0.10868094441216186,
      0.28320155978897965,
      0.11117143646155865,
      -0.3340792853967314,
      0.23324585786268406,
      0.08247234052909211,
      0.13546758010114845,
      -0.05807362073690928,
      -0.4240953273537301,
      -0.10054089877085401,
      -0.2284912684699076,
      0.08448417768906571,
      -0.28275402733522675,
      -0.10131196124554494,
      -0.019888903211357143,
      0.5036969481553216,
      -0.3881632011787902,
      -0.4045894749693226,
      -0.03599578493712592,
      0.086056850796259,
      -0.11742083779693101,
      0.07508193457815612,
      -0.25583769087287367,
      0.05717660515402277,
      -0.6317070110842649,
      -0.007014704971790296,
      0.015593042198811233,
      0.03209247611865373,
      0.3584020890140374,
      -0.1309588371366026,
      -0.31850963329656146,
      -0.3808191494484422,
      0.14613905196891927,
      -0.2799626087822673,
      -0.04181008655557962,
      -0.21988016116207248,
      -0.12330569164330737,
      -0.491498926985115
    ]
  ],
  "ba": [
    0.07610024683501625,
    -0.03811260136755401,
    -0.15274733739356994,
    0.11475969192610777
  ],
  "Wv": [
    [
      -0.307919550615105,
      -0.07409975009975758,
      0.024395104326898044,
      -0.21844891914431075,
      0.04226340090530133,
      0.0631400544768065,
      0.0551548447554461,
      0.1373736090265993,
      0.10261317868279504,
      -0.32646119591265343,
      0.040266349139823694,
      -0.05199218780876913,
      -0.026829057578415003,
      -0.11021356258448098,
      -0.034700012711309916,
      0.018532484697762218,
      0.04751140428487373,
      -0.07083062917103304,
      0.21529304249750064,
      -0.001798189759291564,
      0.012783726526613628,
      0.07027709740155373,
      0.1636565381434931,
      -1.0528742804234712,
      -0.05018697365901454,
      -0.0009842099519711755,
      0.013403842639904882,
      -0.04426728485859788,
      -0.11496090379315377,
      -0.12681173079006897,
      0.06930819922982275,
      0.23337422454604312,
      0.07278671490542345,
      0.033247731312370236,
      0.035449265242388284,
      0.04615716294226311,
      0.1022230102028425,
      0.7380518335569077,
      -0.026018213596570326,
      0.06449142314622922,
      0.05968919455986077,
      -0.020370557048635374,
      0.05857732407120581,
      -0.3065088042751023,
      0.0052237379254883,
      0.8118212617141186,
      0.0031130538303178177,
      0.22387489821802908,
      0.12927845327811316,
      -0.3182385064034256,
      -0.028010891571936467,
      -0.2857281409945339,
      0.4142103566420888,
      -1.6554778665269447,
      -0.08261170141607657,
      0.03306334005223483,
      -0.07933723266939909,
      -0.12473467794316244,
      -0.003901643921273368,
      0.05307787435247252,
      -0.0025101294669592185,
      0.16299590814880283,
      -0.15756788306252184,
      -0.009729520921100545
    ]
  ],
  "bv": [
    1.3333815145630554
  ]
}