{
  "W1": [
    [
      0.018683099164017357,
      -0.38605315429921455,
      0.16657023530609055,
      0.24526718115558263,
      -0.6474586983009143,
      -0.4631224538293458,
      -0.006566047144854993,
      -0.17179082581568528,
      -0.05726356337571327,
      -0.30116123006718937
    ],
    [
      0.25413944031126273,
      0.3119021844635111,
      -0.006399206338037332,
      0.31781313803739686,
      0.0897849059886854,
      -0.2890404772982591,
      0.0957061029367163,
      -0.27763637213858516,
      0.22977244776830308,
      -0.03516435168251336
    ],
    [
      -0.1130851364262774,
      -0.08233879857563367,
      0.33731066293306855,
      -0.14836640502356765,
      -0.2371771779060255,
      -0.20066692424255575,
      0.1065318790390585,
      0.08963687346055113,
      0.028679632275372974,
      0.0971138238011815
    ],
    [
      0.7332030300560506,
      0.0005124173795867467,
      -0.11559186028780463,
      -0.1892689397486857,
      0.21431559330219074,
      0.42172032930172304,
      0.027228730200210882,
      -0.1642181952620095,
      -0.19647862679921596,
      0.26339269699355994
    ],
    [
      0.1799718704583955,
      0.1131063920109363,
      -0.27321822771419985,
      0.008806673566369105,
      -0.03555644826651369,
      0.021415941588166,
      0.21102373025871912,
      0.028442694964223095,
      0.15387240350043227,
      -0.04856426365734297
    ],
    [
      0.05632761103565437,
      0.21635102166467773,
      -0.4871327732454278,
      -0.1421195205894767,
      -0.1764858914172775,
      -0.25447664031012485,
      -0.11956985029349368,
      0.4226245511103476,
      -0.3022397728146453,
      0.28473582361634975
    ],
    [
      -0.5109299802806453,
      -0.4071077474726097,
      0.03978185843326619,
      0.22807505639891124,
      0.2794399693566164,
      0.30365958932937187,
      -0.1065746067085013,
      -0.18995225463488757,
      0.2911034768641484,
      -0.10486377389083179
    ],
    [
      -0.3759300476973567,
      -0.5890753911114359,
      -0.2694728225686577,
      0.21712106458485955,
      0.1285130342544309,
      0.2586738226269782,
      -0.12347586720636644,
      -0.011127726584220812,
      0.2659023922036542,
      -0.11018301688992614
    ],
    [
      0.1726552240396388,
      -0.4742851718720268,
      -0.11196299575665836,
      -0.07039152618407561,
      -0.29023334022152136,
      0.19813253432661612,
      -0.12405654215655258,
      -0.06533183070088425,
      0.17883572697783973,
      0.11871615487754028
    ],
    [
      0.10400899202730542,
      -0.13542146494782586,
      -0.20435599065169902,
      -0.10955089432300724,
      -0.5993250003059984,
      -0.5263462541348543,
      -0.4957847954482213,
      -0.38599721038540075,
      0.046776825835018895,
      -0.3524967727111969
    ],
    [
      -0.0829262207645921,
      0.5659069552532401,
      -0.07667647421017326,
      0.23793024506189614,
      -0.2667348991894528,
      -0.06963777708095842,
      -0.2641320412824876,
      -0.0858296314321674,
      0.27286252142652995,
      -0.4862273306628447
    ],
    [
      0.17539341137446554,
      0.11631650558957354,
      -0.16551248955351028,
      -0.4261334019986563,
      0.053572377225286086,
      -0.13349815045194438,
      0.11449224343550217,
      0.041382763317711756,
      0.5295546581471384,
      -0.043878658112549526
    ],
    [
      -0.3115419598518865,
      0.13221324211207786,
      0.08189515975866282,
      0.42805478264998353,
      0.24897977358856255,
      0.13018378792107438,
      0.4738053438074256,
      -0.3265365970327183,
      -0.2271142208847176,
      -0.27638212886702057
    ],
    [
      -0.1373698941430657,
      -0.6847649173009593,
      0.17999382022951893,
      -0.05988202021479688,
      -0.45267180022700243,
      -0.27133684768177685,
      0.07777121542292553,
      0.24448689900980458,
      0.6408476193531212,
      0.8536303772366663
    ],
    [
      0.2551921481163359,
      -0.49783020653653476,
      -0.5667645708665671,
      0.26656770460991724,
      -0.06639330136708929,
      0.032004216811111014,
      -0.060250828011194885,
      0.011340472982943503,
      0.4847989973245239,
      0.13186718549028603
    ],
    [
      -0.006269226756036124,
      -0.45893458089541667,
      -0.48793492748354683,
      -0.0901841730996499,
      0.06734287380397663,
      0.6155855761015703,
      0.08215881386553936,
      0.29317760284303657,
      -0.10763551438534355,
      -0.3546762369108816
    ],
    [
      -0.3260561428316584,
      -0.31143310248448475,
      0.6516600412856474,
      -0.2699149946244487,
      0.25415784517875784,
      -0.29347053735764284,
      0.2706252507488245,
      0.09587321749073281,
      -0.060766372311878196,
      -0.04307980180170072
    ],
    [
      -0.1793820781408736,
      0.25104439183927907,
      -0.1086109451562483,
      -0.3541608214995079,
      -0.3797404713769468,
      0.07516116599316681,
      0.5358003172636313,
      0.09197792720992673,
      0.004760996135122783,
      0.14270907961998458
    ],
    [
      0.4556527564481879,
      0.116551031292631,
      -0.09462527965246874,
      0.359566811213086,
      0.14333719615246934,
      0.5126635882131851,
      0.10008952014715383,
      -0.3091334739950676,
      -0.43044617441660615,
      0.5369749563609467
    ],
    [
      0.531351630839813,
      -0.04700656085299459,
      -0.12286724465668387,
      0.45488934317111107,
      -0.3731256603547944,
      -0.2818028645969771,
      0.1897206955681012,
      -0.10270015031633964,
      -0.02073205281234586,
      -0.056912621498874404
    ],
    [
      0.11908626488336738,
      0.4153239607760477,
      0.0588656716226474,
      0.24797398202311377,
      -0.6048091418297621,
      0.011572973136334777,
      -0.24578390700134706,
      -0.3725528315032496,
      -0.24191293500303154,
      -0.07386582791241794
    ],
    [
      0.24767681145079837,
      -0.656393307752781,
      -0.03939314664074639,
      -0.17663922632342965,
      -0.10619436875719687,
      0.2868475278933965,
      0.12034248953700957,
      0.32111998272482944,
      -0.07730526842865228,
      -0.2984464586015455
    ],
    [
      -0.07188542783468274,
      -0.0026229804793322623,
      0.049738386699519216,
      -0.3346362512940827,
      0.018541655243888476,
      0.09945942279340406,
      0.7492402228445522,
      0.581650261982641,
      -0.2655963833530306,
      -0.10994467437845976
    ],
    [
      -0.6333603938334299,
      -0.3433956686915013,
      -0.08250525939555173,
      0.1743828879749835,
      -0.36265748925045455,
      -0.38702876210885767,
      -0.796858520086037,
      -0.2601637012065873,
      -0.5143346394363609,
      -0.31408300951838075
    ],
    [
      -0.24211463705321112,
      -0.10267119773516897,
      -0.5305263988787253,
      -0.4156931325499006,
      0.7265432419172846,
      -0.35935309019532075,
      -0.3165185763091359,
      0.5942660740234209,
      0.967442696558371,
      -0.3575274864893358
    ],
    [
      -0.09991827054227526,
      -0.031202195069812522,
      0.5494265116751227,
      -0.2681935633815603,
      -0.028454291737932687,
      0.28454437279106715,
      0.15914823553184132,
      -0.143133443423405,
      -0.00022176406910224666,
      -0.4413912436510849
    ],
    [
      -0.11303434923069086,
      -0.1702982174929344,
      0.03071676717817068,
      -0.21333205703771552,
      0.11303946267321752,
      0.28688111055973525,
      0.004894961086668127,
      0.06703432788180072,
      -0.013806483887450254,
      -0.05494027993334759
    ],
    [
      -0.24091670638755894,
      -0.008963199045255475,
      -0.05834087957222538,
      0.6545039587298134,
      0.48461694957112295,
      0.1632723067002279,
      -0.2642391828745586,
      -0.3495092061468661,
      0.35606053565633955,
      0.0351081498943597
    ],
    [
      0.21563553823798415,
      -0.5447608713085892,
      0.3527424719137606,
      0.23321106263452684,
      -0.26689777668358206,
      -0.07342753147464476,
      0.1568258580027591,
      0.07701325263056705,
      -0.01926084754741917,
      0.028326811922224207
    ],
    [
      -0.14773950339009828,
      -0.005974064251521698,
      0.41939690263892315,
      -0.8152959838731564,
      -0.11800046228713282,
      0.0049541758150316514,
      0.037967814949515455,
      -0.15606561264570473,
      -0.568679621703054,
      0.07267888443806318
    ],
    [
      0.48859051802603537,
      -0.6071176808181853,
      0.2022045729775474,
      -0.1827851302815668,
      -0.0895824455717423,
      -0.3946049520096984,
      -0.17367661790355693,
      0.33518959505602364,
      0.10406680511764939,
      0.46010349543813484
    ],
    [
      0.375184720792197,
      0.12921471361526113,
      0.5392721262061031,
      0.11987641367645054,
      0.2491132455874261,
      -0.09876794608312858,
      0.010551744334089204,
      -0.2272299841159509,
      0.3137925774122522,
      -0.39023183922185684
    ],
    [
      0.2072723696836181,
      -0.2030293755437682,
      0.3145393423400603,
      0.19719990562216516,
      0.5406484005067669,
      0.20090936921935168,
      -0.542664661316281,
      -0.08521203667461151,
      -0.4120440047389139,
      -0.23557239020152704
    ],
    [
      0.4616003919753048,
      0.11544015799596949,
      -0.24022354658628964,
      -0.32186910332960056,
      0.010011201683420358,
      -0.3841162749272765,
      -0.23032287997090506,
      0.08175174126966393,
      0.3711919875758923,
      0.17056349217769207
    ],
    [
      -0.6826495961884436,
      0.40686002026280166,
      0.07067527695596404,
      0.108078114801863,
      0.4854120476192284,
      -0.6564229734237954,
      -0.14948109327272904,
      0.24168098027301171,
      -0.49965318024575633,
      0.5444119207769316
    ],
    [
      0.045550153102245174,
      0.2767267293390045,
      -0.24911910457856146,
      0.16107191811077914,
      0.23823573146632115,
      -0.0036846870994640237,
      -0.0032241520015515958,
      0.04513203162658833,
      -0.3805445592553882,
      -0.11232158961487812
    ],
    [
      -0.1301779628919861,
      0.3386973071579439,
      0.25025903395682125,
      -0.4836962673093798,
      -0.18197964558399596,
      0.31661963770135565,
      -0.32337589740283795,
      -0.3121019235038941,
      -0.06566150998643669,
      0.21814749743317183
    ],
    [
      0.14849435362238475,
      0.5846618157820102,
      0.3892865037074111,
      0.34678262681255134,
      0.23264391592948036,
      0.8201056771972555,
      0.05158808089915859,
      -0.43973185356095007,
      0.6222791957692029,
      -0.044731919478312517
    ],
    [
      0.07790004602474741,
      0.5427171983353121,
      -0.43894603162010154,
      -0.3388908760937017,
      -0.45047308017909904,
      -0.2180935538965842,
      0.1917814588118689,
      0.2208972100442826,
      0.14490922848069981,
      -0.35973272414564483
    ],
    [
      -0.7401528874304988,
      0.009556230879867782,
      -0.155861390244464,
      0.12557049181271027,
      0.21810565169695878,
      0.02529439209668248,
      0.2269515688708287,
      0.0500664028778003,
      0.1444642473567705,
      -0.23197457248309858
    ],
    [
      -0.02569794469018905,
      0.1777956084349653,
      0.2827686992333083,
      -0.12225036421640798,
      0.1911450574490946,
      -0.0990555370417032,
      8.895790089395687e-05,
      0.2520400093333026,
      -0.6237079564273675,
      -0.3671564823849588
    ],
    [
      -0.4330100604262293,
      -0.9795507775455149,
      -0.20702541901579857,
      0.27904564352861677,
      -0.024185668977626466,
      0.11783110300611273,
      0.3505516335976307,
      0.3787384972220632,
      0.012762580386889355,
      0.38601016373153707
    ],
    [
      0.024259531753590826,
      -0.004448449838161134,
      -0.16820251902623246,
      -0.5205662405024765,
      -0.3277952160777717,
      -0.2154382328888914,
      0.2554881622075407,
      0.5377711660301324,
      -0.45091002467014113,
      0.17229265775554675
    ],
    [
      -0.40711600695724276,
      0.13950296833642972,
      -0.0947695808008794,
      -0.6149386463175326,
      0.20260717016671456,
      -0.2665811327356084,
      -0.2340275337613128,
      -0.3796302348733378,
      -0.2586926987817037,
      0.08631506128884678
    ],
    [
      -0.09948582274636503,
      0.04574359088340767,
      0.07348438297622825,
      0.38582948137605516,
      -0.1562958376213121,
      -0.4817668954538411,
      0.2963785573660097,
      -0.11268886927757178,
      0.3178658331949178,
      0.07525809584493906
    ],
    [
      0.13960324731855783,
      0.26534633709492184,
      0.7372013234157335,
      0.7739015582588111,
      0.15032864230875603,
      0.20129542200143757,
      0.4669428562933052,
      -0.06785230636631812,
      0.25527409066022655,
      0.12723736885723794
    ],
    [
      0.12060874240482337,
      -0.19761873751567766,
      -0.4722808694273579,
      -0.6428745108884398,
      -0.3355626487548424,
      -0.15959521852490627,
      -0.07367068673089325,
      0.6203953161177003,
      0.37005871833200754,
      -0.26595824874213503
    ],
    [
      0.1794534634111125,
      -0.04431505233444616,
      -0.04504967297589668,
      0.09906488503759778,
      0.22097308679903283,
      -0.0681153390911512,
      0.37364180920314827,
      -0.2638103154164535,
      0.026612125418799003,
      0.8510955091208213
    ],
    [
      -0.03697609570886127,
      0.4526154870685592,
      -0.06180528059730239,
      0.05795844091112202,
      -0.14064684155750018,
      -0.17281780301884392,
      -0.3555338662791243,
      0.045083120694613885,
      -0.38207491760426393,
      0.12471680606497204
    ],
    [
      0.21973753785229513,
      -0.013559393850099131,
      -0.15823131573781832,
      0.07515567459872836,
      -0.14157662781273483,
      0.2271463543348487,
      -0.6189104500030735,
      -0.19864277351195572,
      -0.683143655643751,
      -0.5184894694439062
    ],
    [
      0.40285078198532515,
      0.6639389452192082,
      -0.20706726180147744,
      -0.5386396824091721,
      -0.970791320489146,
      -0.2619528085515225,
      0.7320525816832835,
      0.17174836283509312,
      -0.209229991678141,
      0.20380647423379533
    ],
    [
      -0.44514826440588323,
      -0.048579212492998854,
      0.09038089186001291,
      0.04096368306270365,
      0.2899582375217031,
      0.22188090813247074,
      0.2707979635466003,
      -0.10658948076485057,
      0.35342380884211455,
      0.5716390134868483
    ],
    [
      -0.15878679425610256,
      -0.13355107835688199,
      0.49989540933331567,
      0.026830239973342628,
      0.5086293356267584,
      -0.05503243662053849,
      0.5276200850269315,
      0.16680503713717276,
      0.14520701729951457,
      0.5613470225694228
    ],
    [
      -0.4137375779490806,
      -0.6339540405716804,
      -0.4248134326358603,
      -0.13946779848212326,
      -0.682609999991557,
      -0.08708398947287285,
      -0.4120166609886724,
      -0.050350559575749236,
      -0.993482637367456,
      -0.5113411233402132
    ],
    [
      -0.38735431247766844,
      -0.4209248600902527,
      0.18351130265076082,
      0.13381555087300478,
      0.11214152984512425,
      0.13081505042011904,
      0.20621378014686215,
      -0.240046801539455,
      0.3896606399393104,
      0.2960673148742565
    ],
    [
      0.14843317426191946,
      0.23177146878240068,
      0.1290328438217072,
      0.6752981205003419,
      0.0047738570865126844,
      -0.07424839606019457,
      -0.20796033826744023,
      -0.29478510379991013,
      -0.3573447070524264,
      -0.23951998765990729
    ],
    [
      -0.031942156940437755,
      0.14086962073255854,
      0.01885578471771196,
      -0.23520676080310107,
      0.2684681523229251,
      0.24375679654169163,
      -0.05775531424571694,
      -0.16530211225029143,
      0.19781705592358922,
      0.06288732027307305
    ],
    [
      -0.42252556671027475,
      0.17518524481578185,
      0.1216740974928099,
      -0.2513162563688965,
      0.06440419544013132,
      -0.43972303647581157,
      0.4608354591852032,
      0.45689749047409833,
      -0.03342539442441321,
      0.178683382240313
    ],
    [
      -0.6866883076844083,
      -0.44486491218394897,
      -0.03712522728767118,
      -0.2624467186927809,
      0.33040867489833975,
      0.7086575315699324,
      -0.30101661748883557,
      -0.25443619138872425,
      0.14787236450402308,
      0.5492612955311716
    ],
    [
      -0.36633583311178697,
      0.1455493478047233,
      0.5993502095401029,
      -0.5055481365151592,
      -0.3848637449958784,
      -0.1625085038290187,
      -0.14213416388151193,
      0.2680318004934319,
      0.10031031752619227,
      -0.5123313594105261
    ],
    [
      0.13105409466522966,
      -0.05435615685872129,
      0.37149198348168777,
      -0.26381722959432685,
      -0.26662758737060044,
      0.10471104273857121,
      0.21234316555404192,
      0.11822156401177707,
      -0.595519809782769,
      0.15424726293097318
    ],
    [
      -0.3330472849577441,
      0.12269357594736956,
      -0.4415615584227002,
      0.09148955023768526,
      -0.2633132355383745,
      -0.4490380210692276,
      0.2049370076537831,
      0.04817791995472644,
      -0.2351009022883146,
      0.45690540048100536
    ],
    [
      -0.17953648758289276,
      -0.01987495423848843,
      0.07113434543367606,
      -0.19642344191664654,
      0.14882989974445568,
      -0.17990356046233216,
      -0.150981175914806,
      0.38726059217882647,
      -0.3327026652028308,
      -0.7539108704692679
    ],
    [
      0.43447640671178617,
      1.0461613954568203,
      -0.1550281428723525,
      -0.6806109318986716,
      -0.2095585952897242,
      -0.17642448524048804,
      -0.1059378794814134,
      -0.32098266820441235,
      0.11927650452905467,
      0.16475750780445064
    ]
  ],
  "b1": [
    -0.5573606157872213,
    -0.07275375344441193,
    0.08085542680409553,
    -0.29798034579222543,
    0.15946722119363502,
    0.10472209804395102,
    0.05965086686082416,
    0.043772523422000734,
    0.14103680462552534,
    -0.3605101063213584,
    0.10256948218887021,
    -0.05549470094055853,
    -0.035226810688937626,
    -0.027073055908904797,
    -0.08946634075831633,
    0.01445944313116837,
    0.0284883290891082,
    -0.0670931000827428,
    0.47099188241701456,
    -0.005614619641426079,
    -0.13662820683726334,
    0.1064553760939741,
    0.42366303007857764,
    -0.7214893412636552,
    -0.02367575001570192,
    -0.03168920472847654,
    0.0384484767629376,
    0.05483094111530424,
    -0.2590926168861041,
    -0.3515964343193265,
    0.16433849008429616,
    0.33624829175710674,
    0.07712005765313298,
    0.04762981300953624,
    0.03300508260879445,
    0.13914011982493701,
    0.1875096977396889,
    0.6282193792782272,
    -0.13315005526866452,
    0.10184254620667806,
    0.04722127205052534,
    -0.016341105303370847,
    0.014492928974910274,
    -0.4776558089088637,
    0.043853930355015794,
    0.683140133088279,
    -0.052004844152615595,
    0.4400909680595673,
    0.23181058272416222,
    -0.5305407608960112,
    0.02356417880834677,
    -0.18020005082081406,
    0.5876822141436215,
    -0.8256324964651955,
    -0.15731721457687342,
    -0.011754497074342408,
    -0.1335271464182707,
    -0.1548356536613118,
    -0.1421373069691351,
    0.0009099053025303969,
    0.015012525414570453,
    0.14072049421775482,
    -0.3639535182467447,
    0.03782719630913353
  ],
  "Wa": [
    [
      -0.3025299790209874,
      0.2005126100735173,
      0.24670624895316115,
      -0.007337844161064356,
      0.039017507436473614,
      0.24080686712425037,
      -0.21634068259434525,
      -0.5726287639698979,
      -0.16272353153394895,
      -0.119926747600251,
      0.4137339723658009,
      0.032963281998694735,
      0.15525855432418956,
      -0.30540327848655197,
      -0.224009034791047,
      -0.24783652431817413,
      -0.19737230037244957,
      0.21611973716429245,
      0.19352731677427648,
      -0.053838675110845405,
      -0.11107294394299788,
      -0.2848158854693247,
      0.03799329153556637,
      -0.1542951818571211,
      -0.16800261008223236,
      -0.20865205519180485,
      -0.2835785837744838,
      -0.04811141982797461,
      -0.3389239687555728,
      -0.2904586147769861,
      -0.012774203419887956,
      0.056295390826783934,
      -0.19938110569713227,
      -0.009084570754027754,
      0.3137702740817608,
      0.1894523079964765,
      0.4671904246376888,
      0.057875639204797096,
      0.2061879352136009,
      -0.10774791226686667,
      0.24015811046128555,
      -0.39902506316324615,
      0.2326586923755504,
      -0.06518142637181992,
      -0.0009635945296698011,
      -0.028214937170185486,
      0.05225993453184628,
      0.19226129919223978,
      0.29086464997929645,
      -0.07733034296602377,
      0.5114104658124556,
      -0.034208364997553975,
      0.10513917566279074,
      -0.34408244267042987,
      -0.3758047236630531,
      -0.05398473307411763,
      -0.28299584919713877,
      0.026234342995949976,
      -0.4224864035054252,
      0.010334551027486816,
      0.23262822703550395,
      0.06777492418185949,
      -0.15316178823517712,
      0.6107574037016867
    ],
    [
      0.17551988712976535,
      -0.15347831480584034,
      -0.1258753632793712,
      0.026978277386495123,
      -0.062326409426573644,
      0.08044297318213356,
      0.003091816745028148,
      0.14436577609441706,
      -0.12827656337204618,
      0.08669817893900374,
      0.01713000230340791,
      -0.13626610650081017,
      -0.2137716225253461,
      0.06623070910669954,
      0.005456705060615675,
      -0.11359146415856408,
      -0.018319597983261805,
      0.1516498720021509,
      -0.3473173965683921,
      -0.18780301027386748,
      -0.059083830749942806,
      0.15290914029190303,
      -0.011038887124733318,
      0.1562848854048373,
      -0.08602883341472903,
      -0.1467851841851557,
      0.033250565638233365,
      -0.02646107601888331,
      0.08642497346162334,
      0.026428069311186266,
      -0.010445216458688504,
      -0.016079379914301316,
      0.04834874866781741,
      0.11390194762587559,
      -0.18066196647307373,
      -0.3240074732349897,
      0.11405450709936762,
      0.111789817068911,
      -0.06110538360728634,
      -0.21044150895437574,
      -0.0028270803039486597,
      0.1054848400889127,
      0.2525066356757008,
      0.13206092131626768,
      -0.050452307168594855,
      -0.1710310624639276,
      0.06358694795196268,
      -0.0688980437247753,
      -0.15967539710740847,
      0.2882302574867223,
      0.2293581865708702,
      0.08896645527229047,
      -0.1698613894685958,
      0.1302679667844051,
      0.11351433433534908,
      0.06248165168671699,
      0.16029348488600484,
      0.09244120510453757,
      0.11908168696738379,
      0.14731821312886534,
      -0.004586785523877977,
      -0.1705117781256626,
      0.05297472099418793,
      -0.061700089155222654
    ],
    [
      -0.0607693686546313,
      0.1251606067217813,
      0.1903867564340806,
      0.10959656529234331,
      -0.04738439566034132,
      0.1880940230185812,
      -0.004762874784747625,
      0.12430309649305389,
      -0.13005430879287155,
      0.208527059933044,
      0.07127848134332043,
      -0.17304399005293858,
      -0.03111998591521458,
      -0.08123916364215467,
      0.2975070954113228,
      0.17016073954087113,
      -0.014786096196063272,
      0.05833732751388876,
      -0.09495416420123458,
      -0.031623950548706925,
      -0.014343005806587223,
      -0.0461026810903678,
      -0.17097150528849514,
      -0.025776965462063404,
      0.0996882525880695,
      0.04658569960480874,
      -0.2573004354353726,
      -0.1085706823043503,
      0.17311017582635274,
      0.2489491996762586,
      0.03156354044505115,
      -0.09074697901521646,
      -0.1720540789565973,
      -0.15085413202362835,
      0.09179013043233436,
      -0.017956662670138027,
      0.14507135852565636,
      0.0408826043533011,
      0.10484833101559438,
      -0.12486861529775198,
      -0.020736734852333884,
      0.02368242522356038,
      0.05938771421445195,
      0.06023789762266513,
      -0.013758555446749964,
      -0.18660482051063226,
      0.03562795303348466,
      -0.03934849295747233,
      -0.09570134651910801,
      0.12695197497020738,
      0.06029853721460095,
      -0.25782899773062307,
      -0.17455216122154066,
      0.2738199492714897,
      -0.104143053927353,
      -0.23460540306132813,
      -0.24533217503446675,
      0.025096359813753757,
      0.05997825111001799,
      0.11315587213103576,
      0.11583355193929273,
      -0.23202511901903458,
      0.1516501365583125,
      0.18256553049842428
    ],
    [
      -0.16882725456785572,
      -0.04403889910309527,
      -0.04644095189768281,
      0.020185982223395155,
      -0.00804543559536701,
      -0.09889487820757878,
      0.5243929695418883,
      0.1586911531874254,
      0.4136670827662604,
      -0.17154609361774836,
      -0.07074096179773506,
      -0.07190498849457372,
      0.11266685130141868,
      0.3038808888068433,
      0.5726354381437273,
      0.3215946096236282,
      0.02284733509576234,
      -0.1107069176724366,
      0.07551434805529277,
      -0.04087118430241221,
      -0.16408458557061978,
      0.3434656450686772,
      0.008097294125922427,
      -0.07763198999321504,
      0.10760022245159383,
      0.0577318480325715,
      -0.10381142976230409,
      0.31867182784812875,
      0.08435158056310516,
      -0.37685499538696937,
      0.24545754969468722,
      0.11970384940214074,
      0.13875407004928936,
      -0.04927435719870149,
      -0.4476027330032671,
      -0.08818587798982484,
      -0.21546570813676164,
      0.12211519837168973,
      -0.3107164138888159,
      -0.09179973412332659,
      -0.05147094922333927,
      0.49937742169375915,
      -0.42514178822842913,
      -0.4448062544434251,
      -0.005645373791118526,
      0.12370596368302056,
      -0.14262898357358905,
      0.10130775176309287,
      -0.24178054878992122,
      0.014115100746196482,
      -0.6433990961133682,
      0.025431731149658902,
      0.04635415922459307,
      -0.01876351829004073,
      0.3534070968167029,
      -0.13487459017219786,
      -0.3112449284974599,
      -0.394165685106893,
      0.12126879988991233,
      -0.3007509005457577,
      -0.061430180783902985,
      -0.24810366341552018,
      -0.15933870672385103,
      -0.4819189310093488
    ]
  ],
  "ba": [
    0.12098613990207827,
    -0.10384073051255108,
    -0.17588627914420196,
    0.15874086975467427
  ],
  "Wv": [
    [
      -0.4276650791854525,
      -0.08609462127180399,
      0.04164816211200803,
      -0.2558358413627181,
      0.04107610744979575,
      0.0582580271850201,
      0.07861512619389732,
      0.1759289643000726,
      0.1304095306623964,
      -0.2969143955675893,
      0.026059123530713033,
      -0.05945392182055658,
      -0.0122741012203411,
      -0.1227104749536492,
      -0.025143522165083726,
      0.0313851966228771,
      0.07054854444355693,
      -0.0909543235150419,
      0.35659674126813395,
      -0.0017774561642899906,
      0.01731309311014338,
      0.08485010265210485,
      0.1704740386247019,
      -1.0885525393511695,
      -0.05613710511109879,
      -0.010904953490482198,
      0.015248548722564615,
      -0.06074311595140042,
      -0.13072362718636632,
      -0.14164538277428196,
      0.08370057294566129,
      0.2563044915414334,
      0.08330430452956829,
      0.030247050739431826,
      0.04256914551241507,
      0.05464044516871214,
      0.1396815298350742,
      0.7234638287115984,
      -0.03924153844917944,
      0.09046308106661873,
      0.06100082128338466,
      -0.004355234392756575,
      0.07247569912216074,
      -0.33644486019233183,
      0.002578005851570789,
      0.8470640322409191,
      0.015384253047075884,
      0.3501727879149604,
      0.1239896827666854,
      -0.4162163215102748,
      -0.04694075528627337,
      -0.33374762767570126,
      0.507892707101861,
      -1.7114555796925548,
      -0.08848917654414343,
      0.019686266007078224,
      -0.09825664410929567,
      -0.1507391854902355,
      0.010377514814209062,
      0.06319750109055056,
      0.0001372778101127142,
      0.204186412284261,
      -0.22618433864787288,
      0.004708354171135356
    ]
  ],
  "bv": [
    1.3636125084102213
  ]
}