{
  "W1": [
    [
      0.004957066796737519,
      -0.39671049639836375,
      0.15379730833176813,
      0.23270258213568135,
      -0.659661360192875,
      -0.4701233660276162,
      -0.01963280947807897,
      -0.18180135262409974,
      -0.07431778731037528,
      -0.3140473540340675
    ],
    [
      0.2578582412745516,
      0.32004395178514866,
      -0.001680470230736532,
      0.31769443060581615,
      0.09222616920617022,
      -0.2885052650887668,
      0.1008074007029368,
      -0.27533108921089844,
      0.23491494360091503,
      -0.02941760194330706
    ],
    [
      -0.11214105256366885,
      -0.07807913679057937,
      0.3390019502974676,
      -0.15235543999214618,
      -0.23883728797786788,
      -0.20306914615898883,
      0.10984486859640216,
      0.08602790133125174,
      0.03081002049533624,
      0.09701950478685858
    ],
    [
      0.7338666703732694,
      0.003028277185123972,
      -0.11203912178607331,
      -0.1857305476252565,
      0.21592537436615647,
      0.42342449985440234,
      0.02815234668307074,
      -0.16241986820760806,
      -0.191452856904126,
      0.2662166554010931
    ],
    [
      0.18197207205210772,
      0.11471857545238856,
      -0.27264206134779834,
      0.008038677176005317,
      -0.03328436221839373,
      0.02097552167964712,
      0.21346393090973137,
      0.029577276082289085,
      0.15511770515507087,
      -0.04607952802360754
    ],
    [
      0.05646847321614876,
      0.2182847956842393,
      -0.48566986864390127,
      -0.143787647271513,
      -0.17613494077851352,
      -0.2529123821855476,
      -0.11704775872471881,
      0.422765364091986,
      -0.3025784204750481,
      0.2865212682262894
    ],
    [
      -0.5112358715549904,
      -0.4210227401078854,
      0.0360772696887928,
      0.2314381351510278,
      0.28040043547860644,
      0.30013117408978557,
      -0.11460602262657389,
      -0.19282236006933526,
      0.29272272942270045,
      -0.10606011423255518
    ],
    [
      -0.3802392737696521,
      -0.60249145258199,
      -0.27291249417456837,
      0.2191690173939824,
      0.12450995434706955,
      0.2633540518138282,
      -0.13697988803425212,
      -0.012444224763811141,
      0.25883035802864596,
      -0.11435259977205234
    ],
    [
      0.1721531627036781,
      -0.4843355577301992,
      -0.11500860949234308,
      -0.06688206049320011,
      -0.28816860170657266,
      0.19286438283447188,
      -0.12765784935741703,
      -0.07013279700660346,
      0.18141953933323093,
      0.11858411444475617
    ],
    [
      0.09956460308467405,
      -0.13768337829621,
      -0.20749817655376263,
      -0.1151929858525088,
      -0.6035171781629003,
      -0.5272565114624899,
      -0.4992925556883814,
      -0.38862515632239436,
      0.041806421415038916,
      -0.3579693173185824
    ],
    [
      -0.08384831483864702,
      0.5772720438363461,
      -0.07542188211772836,
      0.23310285418113175,
      -0.2682354766531504,
      -0.07375860236293912,
      -0.2588036722801461,
      -0.08657928795785834,
      0.27364861563735304,
      -0.48665064834192207
    ],
    [
      0.17710037242510795,
      0.11950454128322904,
      -0.1649757280049753,
      -0.42459450481292216,
      0.05555963824652743,
      -0.13525442177302366,
      0.11792223930649795,
      0.04157859471670522,
      0.532791962970984,
      -0.04256792536997834
    ],
    [
      -0.31066305610521594,
      0.13532859019743115,
      0.08193569900081468,
      0.42580083064552265,
      0.24925200637819367,
      0.12354063353021938,
      0.4757862604045116,
      -0.32944616135263904,
      -0.22225758868030157,
      -0.27701604663916574
    ],
    [
      -0.13544219642338345,
      -0.6948632383669391,
      0.17690386285819598,
      -0.05370579828582382,
      -0.44985994682248764,
      -0.2688753884530324,
      0.07299762474800242,
      0.24626716053503844,
      0.6400576023346812,
      0.8538082674718698
    ],
    [
      0.25351828655071396,
      -0.5065032299509009,
      -0.5652406045450654,
      0.2728414709135868,
      -0.06511814557710335,
      0.031613975425506625,
      -0.0705481747010841,
      0.008644578047248545,
      0.4878995208982337,
      0.13378829068813047
    ],
    [
      -0.007971810124127917,
      -0.46316344023074674,
      -0.4873773244644155,
      -0.0872758865376985,
      0.06492150806359923,
      0.6148925955073181,
      0.07451037036911372,
      0.2915496837474285,
      -0.10713864643090931,
      -0.3543189140298074
    ],
    [
      -0.3275826553901322,
      -0.31849429398702805,
      0.6492610785973275,
      -0.27087263799407246,
      0.2528019468882005,
      -0.293752411004129,
      0.2660776797303877,
      0.09326949774339419,
      -0.0634518190570354,
      -0.04479246869731336
    ],
    [
      -0.17733992415019684,
      0.2621370642432707,
      -0.10465964641383912,
      -0.3518608024462684,
      -0.3777164672932458,
      0.07906964887460818,
      0.5409194813344586,
      0.09826411651816405,
      0.006564555272197781,
      0.14585676337494272
    ],
    [
      0.47331625161802116,
      0.13310282333184187,
      -0.0761167642261889,
      0.3749522987701137,
      0.1611347392072533,
      0.5242786295474194,
      0.11998230260572956,
      -0.29010964625335584,
      -0.4041575723595506,
      0.5505567773785996
    ],
    [
      0.5308957369833585,
      -0.04301348720945135,
      -0.1223167749190113,
      0.45264175422993946,
      -0.37445148450140875,
      -0.2853511560850406,
      0.18927958831209077,
      -0.104765620028306,
      -0.020193314477401556,
      -0.056552709032726946
    ],
    [
      0.12167562154768724,
      0.4223666936941348,
      0.06280731378628976,
      0.24832090301173995,
      -0.6036642108800073,
      0.013440735327880496,
      -0.2445466014980812,
      -0.3710465523457953,
      -0.24133817069385444,
      -0.0725895233310399
    ],
    [
      0.24692606032265543,
      -0.6644027469025173,
      -0.04320840647168068,
      -0.17333143491551614,
      -0.10667125766168467,
      0.2870136613238734,
      0.1143073351861135,
      0.3202126352298361,
      -0.08108215807148134,
      -0.29966105910027163
    ],
    [
      -0.062335294577415275,
      0.0008502192678167313,
      0.055866640394377165,
      -0.32804189129329786,
      0.02731746002322152,
      0.10571485916465553,
      0.756199006548869,
      0.5859859707603767,
      -0.2591009971954371,
      -0.10225178305421548
    ],
    [
      -0.6352591776974038,
      -0.34417328720200435,
      -0.0859395684321083,
      0.17402083837989155,
      -0.36466946317266075,
      -0.3874011158589016,
      -0.7975511868488416,
      -0.2609948852472388,
      -0.5151021833228095,
      -0.31621430404924505
    ],
    [
      -0.24342858706594317,
      -0.10934334029881164,
      -0.5302968026214645,
      -0.4148511041803462,
      0.725522075573871,
      -0.3613742496662128,
      -0.3216085075956059,
      0.5915125497442718,
      0.9673074828615772,
      -0.35754957679595806
    ],
    [
      -0.09866194050730509,
      -0.024790639462213167,
      0.5535723021436644,
      -0.2653159891726398,
      -0.02783401412388436,
      0.28721616204428546,
      0.15682263754206763,
      -0.13839194611984026,
      0.0034613995982816182,
      -0.4356890712980911
    ],
    [
      -0.11269905801969037,
      -0.17450601868089535,
      0.028230714858498294,
      -0.21150953413931972,
      0.11354882820043084,
      0.2897028285713971,
      0.00385583440392582,
      0.0691722083064494,
      -0.01724552604397373,
      -0.05628207103006903
    ],
    [
      -0.2390000591385118,
      -0.01573938492518959,
      -0.05900522231928187,
      0.6592333357848204,
      0.488881061127792,
      0.16416890572824544,
      -0.26358322902998343,
      -0.34659010075616303,
      0.3614024698241832,
      0.03732220757962652
    ],
    [
      0.2116216188468172,
      -0.5452658165995559,
      0.35236415880525074,
      0.23410325420740416,
      -0.27382039664842106,
      -0.0712501838951434,
      0.14808537880646394,
      0.07890472624908895,
      -0.026159791549222735,
      0.02580061906039291
    ],
    [
      -0.1448782607501708,
      0.0010436877105668566,
      0.42598588876920274,
      -0.8147265759925532,
      -0.12082158969789666,
      0.010380131705854792,
      0.03701814226728078,
      -0.1522142337668238,
      -0.5695390298230448,
      0.07629910364386944
    ],
    [
      0.4888430569242025,
      -0.6167831996277382,
      0.19905644205219708,
      -0.18287699411714178,
      -0.08940893109022238,
      -0.39676806614903826,
      -0.17472853410059896,
      0.3307881568485445,
      0.10306275133758867,
      0.45900281891707395
    ],
    [
      0.3821652695073172,
      0.13347648702659243,
      0.5426125179723309,
      0.12370341994715456,
      0.2550945273209758,
      -0.09476553282890125,
      0.017482052188138593,
      -0.22162676855340088,
      0.31894903289284693,
      -0.38372350476029415
    ],
    [
      0.20644479784090275,
      -0.21362804180365771,
      0.31027832419590406,
      0.197992060496064,
      0.5406869295305861,
      0.201219232933997,
      -0.5451242952086097,
      -0.08684546462722749,
      -0.41403312450722973,
      -0.23764433660979967
    ],
    [
      0.4615989604306243,
      0.11201578938371734,
      -0.24263314784262496,
      -0.32160079839116473,
      0.01195609769180437,
      -0.3838755746715088,
      -0.22939624341384046,
      0.08182821556812507,
      0.3681082557975164,
      0.17021043479571615
    ],
    [
      -0.6836074282597666,
      0.4072887196614274,
      0.0723671147565322,
      0.10364169624791153,
      0.48331031684447434,
      -0.6574760970118274,
      -0.1436022810531401,
      0.23693520733307671,
      -0.49949308271367865,
      0.5410551405875681
    ],
    [
      0.04836032957815305,
      0.27841859844999045,
      -0.2463021044860387,
      0.15898512998389944,
      0.24230986564271798,
      -0.007635599854555717,
      0.002922242744400319,
      0.042196954426312605,
      -0.3737319521844345,
      -0.10911091987384339
    ],
    [
      -0.1297592131322559,
      0.3422010178442997,
      0.2503683417167075,
      -0.49002663814872194,
      -0.18356996303627632,
      0.3165237014947041,
      -0.31594703560077664,
      -0.3158890806834349,
      -0.06693977606663654,
      0.21437900105707353
    ],
    [
      0.15206489345277036,
      0.5838183793980916,
      0.3919547104812296,
      0.3459501542616469,
      0.23599819569423128,
      0.8220073151479876,
      0.05505416676221493,
      -0.4399402619398401,
      0.6233210987867843,
      -0.04132309380161029
    ],
    [
      0.08383473146465135,
      0.5631914033236963,
      -0.43033056065858966,
      -0.3367649949445829,
      -0.4477302953918302,
      -0.21590421365819712,
      0.19970900646929837,
      0.22716492002882038,
      0.14942556128100754,
      -0.35392776015040045
    ],
    [
      -0.740981849333517,
      0.007188933753985589,
      -0.1571162435733252,
      0.1238516766252411,
      0.2168575118404643,
      0.02288692315180609,
      0.22610445550104677,
      0.048196886385178724,
      0.14433445336974032,
      -0.23396908319582246
    ],
    [
      -0.02589814017165844,
      0.1824293758530555,
      0.28292469412301,
      -0.1235873922011761,
      0.1910806171240806,
      -0.10023353123274728,
      0.004402628201004894,
      0.2517925000414296,
      -0.6225200773408845,
      -0.36727324898992675
    ],
    [
      -0.43258020238298295,
      -0.9923177244907735,
      -0.2093674034898423,
      0.2857646344074697,
      -0.0243562689273885,
      0.11968135883166807,
      0.34174544075379215,
      0.3793212787481446,
      0.013050928091383428,
      0.3847218614811737
    ],
    [
      0.021964251541687536,
      0.003558830033786942,
      -0.1699403575959319,
      -0.5278414475545231,
      -0.33297454827446044,
      -0.21625257473536136,
      0.25812136893384674,
      0.534684993153969,
      -0.4591299268011243,
      0.16693947827371516
    ],
    [
      -0.4142841705259369,
      0.13441312901751065,
      -0.10129173562978201,
      -0.6206645703773,
      0.19396946872318727,
      -0.2695011328904574,
      -0.24079611021399394,
      -0.3847535748454755,
      -0.2685895063982825,
      0.07736924873006731
    ],
    [
      -0.09791387952443013,
      0.04785841235199488,
      0.07380061944719432,
      0.3852220268109732,
      -0.1547791294537282,
      -0.4823162596082486,
      0.29743400046229374,
      -0.11165439318387656,
      0.3190526764974371,
      0.07749765199387124
    ],
    [
      0.14452969204897098,
      0.26706870349209316,
      0.7404172749157103,
      0.7756053818226938,
      0.1548012714973757,
      0.20346679946375942,
      0.4711124669753597,
      -0.06450772101711597,
      0.2588177064797077,
      0.1318398352630339
    ],
    [
      0.11869460286579947,
      -0.19622944879257354,
      -0.4737257001954102,
      -0.6454836391043911,
      -0.339803467907834,
      -0.1613732838264042,
      -0.07477675989767997,
      0.6183241861263832,
      0.3657453487678323,
      -0.27034827863211575
    ],
    [
      0.17632152265437306,
      -0.04974852078884173,
      -0.0485974887798223,
      0.0954761547473733,
      0.22110925680117077,
      -0.07317091742575821,
      0.3732005449078379,
      -0.26947213028493816,
      0.02478473081808623,
      0.8474823317097455
    ],
    [
      -0.03405636471796737,
      0.455982698376849,
      -0.05992036066341814,
      0.05577805497545294,
      -0.13618413363271817,
      -0.17253995702877112,
      -0.34608063694036134,
      0.04564553253691722,
      -0.37635757194074604,
      0.12733544716320921
    ],
    [
      0.21504710270029348,
      -0.016060417195971677,
      -0.16116809788322858,
      0.07141537122880394,
      -0.14747783680403126,
      0.22597703116562337,
      -0.62217522942803,
      -0.20110012863568782,
      -0.687739695402958,
      -0.5222100496083818
    ],
    [
      0.40359430615068304,
      0.6864525520552598,
      -0.20208360198626313,
      -0.5439799104820597,
      -0.9689886951258327,
      -0.25813294016529004,
      0.7436045754656235,
      0.17849734294737848,
      -0.21222527318863407,
      0.20519701245996386
    ],
    [
      -0.4403122288839972,
      -0.046984351074681185,
      0.09258853607383544,
      0.048110081134300695,
      0.29541732609514765,
      0.22750485996516734,
      0.27427396002512183,
      -0.09861844010787027,
      0.3587641170428384,
      0.5750746776779452
    ],
    [
      -0.15180461224986475,
      -0.12995587263862013,
      0.5042873884505747,
      0.03274978175593282,
      0.5148861823495954,
      -0.05143130624215184,
      0.5339415833806103,
      0.17233366630249775,
      0.15195999772587693,
      0.5665988575182668
    ],
    [
      -0.41285503950825253,
      -0.6355726414000036,
      -0.42382811928052,
      -0.13649728206120687,
      -0.6816364136597515,
      -0.08238311405872245,
      -0.4091291125062353,
      -0.04816000441046092,
      -0.9931644102921238,
      -0.508779216171966
    ],
    [
      -0.3871751705008486,
      -0.42894024627586164,
      0.182281084116284,
      0.1426332948253559,
      0.11410379727357453,
      0.13352308760873913,
      0.1991138379452859,
      -0.23640523035116318,
      0.3905331871608393,
      0.29685216495625466
    ],
    [
      0.1471153265577411,
      0.23397439185772342,
      0.12723617863874637,
      0.6754037048423296,
      0.0035327179385682495,
      -0.07345165051058739,
      -0.20680880579984726,
      -0.29180135395198725,
      -0.3605204788760745,
      -0.24192926365894382
    ],
    [
      -0.031615510515925024,
      0.14015111452003184,
      0.018211352171705077,
      -0.2331277881765626,
      0.2692479173401886,
      0.2500959197492776,
      -0.058066197411067014,
      -0.15992951943674583,
      0.19271856169794838,
      0.061254908743761716
    ],
    [
      -0.4214576480037735,
      0.18268468166883817,
      0.12530036374097464,
      -0.24995906348506186,
      0.06443303173441468,
      -0.43264517743166125,
      0.46382153603219156,
      0.4625402611985612,
      -0.033635734103158815,
      0.18033801581385026
    ],
    [
      -0.6892109216472262,
      -0.4592457073449351,
      -0.03966256584395022,
      -0.25854887480757816,
      0.32797570696190365,
      0.7128767600164062,
      -0.31090200249998373,
      -0.25564819390177096,
      0.1464778091600983,
      0.5452012976056637
    ],
    [
      -0.3665628852602165,
      0.1503492547429804,
      0.5997461679317915,
      -0.50851464423521,
      -0.3880970242391038,
      -0.16017430828509688,
      -0.14165175876582298,
      0.26760675154517677,
      0.09493915257426407,
      -0.5138103809848409
    ],
    [
      0.13185745104124758,
      -0.047905367752989134,
      0.37307957451511925,
      -0.2658616340352179,
      -0.2674150976620142,
      0.10475219055951962,
      0.21658627147350673,
      0.1174884643448055,
      -0.5942771273620998,
      0.15488587779953739
    ],
    [
      -0.3342351226256198,
      0.12222919779525426,
      -0.4436367671260178,
      0.08787434568575539,
      -0.26530263435022383,
      -0.4511532177038653,
      0.20733473720317952,
      0.04641591464308047,
      -0.23770937137730358,
      0.45357751978600663
    ],
    [
      -0.18477443617824885,
      -0.021625015060329017,
      0.06912289792112239,
      -0.19943239654549388,
      0.14078309168933245,
      -0.18174913286893046,
      -0.1577390695650553,
      0.3841228284911334,
      -0.33800881114486236,
      -0.756546177104299
    ],
    [
      0.4346065061650069,
      1.0588050005864384,
      -0.1503234270576445,
      -0.6877039851848427,
      -0.2070170631339842,
      -0.1783207176739266,
      -0.09596767893750421,
      -0.3226227456971633,
      0.11988804012109905,
      0.166535052971209
    ]
  ],
  "b1": [
    -0.5878244470790008,
    -0.07988100789496504,
    0.0922298662871982,
    -0.30618076052144483,
    0.1603270456124842,
    0.10109037655897793,
    0.061632960058269085,
    0.04507048522513133,
    0.14393856205041772,
    -0.3755741585804665,
    0.11397082203142932,
    -0.058214527727213236,
    -0.023646912340503624,
    -0.032185270343260866,
    -0.0876738939828808,
    0.011913347951137559,
    0.029889383423204123,
    -0.07667311645247586,
    0.5154265799487935,
    0.001111884455043522,
    -0.1211599046382155,
    0.10272941554100203,
    0.44482918853611275,
    -0.7278787473072721,
    -0.022226673733765363,
    -0.04181625049542437,
    0.031564081222941076,
    0.050363278642418643,
    -0.2758917469155554,
    -0.34164830571049765,
    0.16714725116492685,
    0.351192565386237,
    0.07649148789719391,
    0.0451155362607908,
    0.03864833668144736,
    0.1549047251932733,
    0.19808699684242603,
    0.6344188775452326,
    -0.11740472364095908,
    0.1075955346012378,
    0.046248896096610995,
    -0.023672855856371734,
    0.016389194606974765,
    -0.49861471524002104,
    0.04925391556118412,
    0.6917178271833943,
    -0.05001527568657696,
    0.44014474452990715,
    0.23845885743581866,
    -0.5403331705662657,
    0.023176133565802597,
    -0.19593315612227413,
    0.6022897640402082,
    -0.8309394841332085,
    -0.16456889122147955,
    -0.012560795462120397,
    -0.14279807964380603,
    -0.16734209189261634,
    -0.14107710847733107,
    0.005686198928822304,
    0.01606828764342983,
    0.1488776831957149,
    -0.3765411075814612,
    0.04561863711999893
  ],
  "Wa": [
    [
      -0.3113604546458734,
      0.2163310400556343,
      0.2531606076103109,
      -0.008979681559291769,
      0.05265896299444755,
      0.23541836926397106,
      -0.22451047364281043,
      -0.5883732120518594,
      -0.17122933937549203,
      -0.13179982362115375,
      0.42276883084119415,
      0.045558037596926,
      0.1679577105000842,
      -0.310291781858379,
      -0.23276791843614356,
      -0.25961624735157246,
      -0.19483773445455177,
      0.22614442564113346,
      0.2016130909804028,
      -0.04399046285438708,
      -0.11304348159778513,
      -0.2928469211712777,
      0.05326473002469092,
      -0.16955134390401788,
      -0.16555923178885074,
      -0.202603541985093,
      -0.28826459418199496,
      -0.04683191736205809,
      -0.3469297084906467,
      -0.2946210139644745,
      -0.01584511295249243,
      0.07072296139272721,
      -0.21396234216040272,
      -0.004171996415835374,
      0.3068094013949953,
      0.1962574644774808,
      0.4656235343712901,
      0.07012512409014711,
      0.2163739486866622,
      -0.10506786331552644,
      0.23763131643452393,
      -0.4141134065370548,
      0.2298871060487931,
      -0.07427771742395894,
      0.015456151526772653,
      -0.01512162279725846,
      0.047242425012460454,
      0.2024543396031596,
      0.289928162384569,
      -0.09175783494971565,
      0.5343737739742599,
      -0.028277302967239844,
      0.11575354179306922,
      -0.3616742866271044,
      -0.38146654917380696,
      -0.05794275110882045,
      -0.2837811420972398,
      0.031995439728144906,
      -0.44845322503803564,
      0.0062286080762933935,
      0.23252654897601047,
      0.07120497565719996,
      -0.162659615658876,
      0.6305218043764921
    ],
    [
      0.18909754309066903,
      -0.16722785886038774,
      -0.13083476919021905,
      0.02825660596700806,
      -0.07084474314414596,
      0.09010218928639682,
      -0.0003789682218878162,
      0.15026588299925683,
      -0.12894011700746802,
      0.1016587432013566,
      0.017126463021501125,
      -0.14782941060982158,
      -0.2128578487146205,
      0.04866028969270196,
      0.0046032761391792635,
      -0.09510754878289637,
      -0.02360503535447903,
      0.1547411283370379,
      -0.3551539842374847,
      -0.19121955754319278,
      -0.04737685812055796,
      0.16218134568666281,
      -0.01572688587326074,
      0.17353679158215204,
      -0.09472450715459463,
      -0.14625040575819004,
      0.035880327667698275,
      -0.041570826264219256,
      0.09165462021815235,
      0.04082275956799376,
      -0.022960187952596918,
      -0.034271312604378906,
      0.05173175019018199,
      0.10180539147966008,
      -0.176852585750446,
      -0.3217990357037542,
      0.11351918286367108,
      0.09340092388272792,
      -0.049130209735323255,
      -0.20778937245753343,
      0.010922040578246273,
      0.11097663719961492,
      0.2687623155636889,
      0.14408944893198458,
      -0.06627856206709751,
      -0.1884532446831228,
      0.07615868355910684,
      -0.08350149293423026,
      -0.15772747712459664,
      0.3068875637752949,
      0.23212472126209424,
      0.07427291121946356,
      -0.18465442827555797,
      0.15407870957554282,
      0.10464171101033211,
      0.06778733419070948,
      0.1556588007546798,
      0.09303658683013288,
      0.1247021390413511,
      0.15662229089207805,
      0.004244179091237235,
      -0.16531832918908776,
      0.07072876500000849,
      -0.07049569125178677
    ],
    [
      -0.05457570054017158,
      0.1194083766652637,
      0.1905073825565364,
      0.11250808193302397,
      -0.05580056819212658,
      0.1885737599661167,
      -0.005152072710425116,
      0.12426061289321146,
      -0.12654172749653197,
      0.21470059761290028,
      0.07111761818799958,
      -0.17479462806341559,
      -0.04073195592779731,
      -0.07515247074770057,
      0.29514937751728826,
      0.16818431159519603,
      -0.014477781377283113,
      0.06007123541390663,
      -0.10369611749694527,
      -0.038695395865103815,
      -0.0076004000797496385,
      -0.04737234318730097,
      -0.1766533926183334,
      -0.016618044812916347,
      0.09354725261152426,
      0.05287824959107867,
      -0.25564569409277355,
      -0.11309896585017787,
      0.17821634352016272,
      0.25884513261075925,
      0.030762005147005656,
      -0.09702031763298982,
      -0.16977562627382486,
      -0.15168224325944624,
      0.09134934555927272,
      -0.02624727511078353,
      0.1539716166900294,
      0.03622220073208969,
      0.10713900237779267,
      -0.13100273772131177,
      -0.020083804114386393,
      0.019965277778376454,
      0.059717014250661705,
      0.06526367424294582,
      -0.02172245415919302,
      -0.19269603652656112,
      0.03595861633582177,
      -0.04660005626136328,
      -0.09574730549333237,
      0.13232872912030783,
      0.06147704751865189,
      -0.257972745536997,
      -0.18001912092315825,
      0.28342282206886843,
      -0.09930542246401909,
      -0.23559544104178787,
      -0.24231341409775908,
      0.025327478317433965,
      0.07286834036209058,
      0.12154414373266755,
      0.12008986969454236,
      -0.2357675067323053,
      0.1545389637721204,
      0.18621889622627025
    ],
    [
      -0.17976810301833257,
      -0.040355554974148194,
      -0.048056530766439384,
      0.017637974400428958,
      -0.004752384903983218,
      -0.10364533339909944,
      0.5364227434829462,
      0.16857797796439067,
      0.4193238629468857,
      -0.18080711953905537,
      -0.07961141783589998,
      -0.07118580197331745,
      0.10866589132738154,
      0.3202531186982125,
      0.5846054686042931,
      0.31686684522703523,
      0.02528989173030174,
      -0.125556770384183,
      0.08400711481397113,
      -0.0402314039731489,
      -0.1805636262720548,
      0.34349413747280355,
      0.003195741715164175,
      -0.08878665477278033,
      0.11999351787462377,
      0.044856006412623876,
      -0.10340992272685665,
      0.3370303591733761,
      0.08202150584784051,
      -0.3969832193907894,
      0.2618449660192459,
      0.1297415501440488,
      0.14767385230742336,
      -0.04126226415486016,
      -0.4440104561660685,
      -0.08890885956141874,
      -0.22226375179903918,
      0.1329150102937339,
      -0.335168272596038,
      -0.09099779714795027,
      -0.0633462068167201,
      0.5126911154020498,
      -0.4389551818258698,
      -0.45276426762728306,
      0.0017250337633848926,
      0.13412604754521806,
      -0.15051387296368451,
      0.11296972386551868,
      -0.24274602220377994,
      0.004508532291216942,
      -0.6703074492704453,
      0.03433796097854399,
      0.05599979160289478,
      -0.03458528992188216,
      0.3631039141891397,
      -0.13523221666102686,
      -0.3088437124027412,
      -0.40075328206836425,
      0.12872508009648218,
      -0.31433730695940787,
      -0.07441578509477462,
      -0.2529847761141648,
      -0.17048375051977976,
      -0.4965410953154371
    ]
  ],
  "ba": [
    0.13409968173788206,
    -0.12486929980894686,
    -0.18307473293533855,
    0.17384435100640336
  ],
  "Wv": [
    [
      -0.461922028731903,
      -0.10175489500526819,
      0.04828848352351643,
      -0.2642524433591245,
      0.03915854316900012,
      0.06074665677682572,
      0.08152275635165297,
      0.19111053588480773,
      0.13739674588842515,
      -0.3113380974537039,
      0.030039377923401014,
      -0.06777185231919153,
      -0.006054606381325092,
      -0.12809217068453344,
      -0.0222136142548203,
      0.040527430391681496,
      0.07373029416575466,
      -0.09865205688488038,
      0.4012566585265643,
      0.003023292309340231,
      0.030128322434946026,
      0.09260972926230505,
      0.19132793768482068,
      -1.0920865583525736,
      -0.06031793101470498,
      -0.01981100877684079,
      0.014382430456973289,
      -0.0732328333594138,
      -0.1385949474088518,
      -0.12448221457019,
      0.08687689405119818,
      0.2633501116415179,
      0.08362757302103736,
      0.025078875800186723,
      0.044895291216448696,
      0.061817833303509734,
      0.14881052511389314,
      0.7248299297316338,
      -0.032958028876881866,
      0.09732403036217473,
      0.06079075206052008,
      -0.004069008218246006,
      0.08755863630641061,
      -0.36105699741518,
      0.00036942335945943034,
      0.8596153998934712,
      0.022816718595627013,
      0.3455373007842073,
      0.12159573227049914,
      -0.42732267087101306,
      -0.0447940609002522,
      -0.35739769980090447,
      0.529109099166297,
      -1.705217385459151,
      -0.09692400833473494,
      0.016578322365594984,
      -0.10743584725708533,
      -0.1618335211240303,
      0.020173100450038305,
      0.07293518558986074,
      0.004019900004998993,
      0.21487721581950076,
      -0.23177014129505888,
      0.006813303483855015
    ]
  ],
  "bv": [
    1.379287953904708
  ]
}