{
  "W1": [
    [
      0.07424353466039221,
      -0.3124337249466973,
      0.12947855597213875,
      0.3631454729522107,
      -0.7064219894991532,
      -0.506117323126258,
      -0.03712686854570969,
      -0.2235133010774305,
      -0.09651936704502506,
      -0.3652200575435305
    ],
    [
      0.20770533922801535,
      0.32544413852939,
      0.12718161025321262,
      0.31383111813257747,
      0.15775559882857584,
      -0.33830179157837587,
      0.13208457750677857,
      -0.2852709183196641,
      0.24605339433575157,
      -0.0663661132352274
    ],
    [
      -0.036157188365814594,
      -0.010333102113506172,
      0.3318129942324725,
      -0.1044524513207772,
      -0.24172075861866135,
      -0.13489802265474288,
      0.0879006377468626,
      0.07294738396227807,
      0.027055128909819866,
      0.13541392593810492
    ],
    [
      0.7142760336889712,
      0.02605279903609693,
      -0.13694760909782805,
      -0.18515647807900987,
      0.20736977686601743,
      0.3570575131138555,
      -0.012309585643517355,
      -0.18594599986863658,
      -0.16971777472535093,
      0.2997725026955004
    ],
    [
      0.2536223336350747,
      0.06102991853287736,
      -0.22375602845951917,
      -0.06828313243032091,
      0.029682657335410884,
      0.08463056162359771,
      0.2900146087222826,
      0.07069792862427172,
      0.12843772667010975,
      0.08114912797160041
    ],
    [
      -0.024589167319998228,
      0.1645626493031275,
      -0.42266079935603934,
      -0.16582409499189021,
      -0.13105534210593647,
      -0.1951214999807885,
      -0.14902601415818256,
      0.5100135009144743,
      -0.30412869351592947,
      0.31511824181156356
    ],
    [
      -0.4888591679877904,
      -0.4569842462496416,
      0.05399792649295511,
      0.1814457068444713,
      0.3139999036999602,
      0.25412199957867854,
      -0.18295905570019358,
      -0.14906424176374222,
      0.34260922280573014,
      -0.12421856709706991
    ],
    [
      -0.4380635785363935,
      -0.5734239794111602,
      -0.2695934934241505,
      0.25888001742813915,
      0.13684737775139402,
      0.21678604549854638,
      -0.0961384552563275,
      0.036528446422251164,
      0.25650696255995936,
      -0.08164037046451615
    ],
    [
      0.1016926658145994,
      -0.5367614186627993,
      -0.18912602721130783,
      -0.12167799859676903,
      -0.2962316950822828,
      0.19296942815428111,
      -0.11788706358957446,
      -0.08664781004880778,
      0.07204942622060846,
      0.11078407603587756
    ],
    [
      -0.00719400570992689,
      -0.23501513743924374,
      -0.1911314121240862,
      -0.14665116474573747,
      -0.5644788743863544,
      -0.538366123684521,
      -0.47603841695391236,
      -0.4619497372580181,
      -0.06262610598599483,
      -0.3876478933532832
    ],
    [
      -0.17478063608459835,
      0.594386447960162,
      -0.12009502067414543,
      0.2644051607046068,
      -0.28486903344800624,
      -0.06833815056521857,
      -0.25835669307164055,
      -0.03251972513907614,
      0.3202569582026649,
      -0.4367866656894719
    ],
    [
      0.18350339251012765,
      0.053849700987038174,
      -0.15592716606293394,
      -0.3850602626025901,
      0.12969898509757893,
      -0.2470077025250172,
      0.1468043136354725,
      0.10535241393007844,
      0.6284522844679987,
      -0.0775638942808522
    ],
    [
      -0.2452724202004321,
      0.09221898219971854,
      0.04970616842790107,
      0.47066648349609685,
      0.22571988867273954,
      0.11908894886650244,
      0.4073119760480357,
      -0.39380452838555535,
      -0.22347714226946908,
      -0.32060650605089636
    ],
    [
      -0.14957299394170506,
      -0.6926082251462244,
      0.23811338198799015,
      -0.060233762837306484,
      -0.4734399378113756,
      -0.2947071122855358,
      0.042712640101927726,
      0.24221643647851054,
      0.7307888619062659,
      0.835599802337234
    ],
    [
      0.18490584596723436,
      -0.5500242299603774,
      -0.6556858803219677,
      0.10921254521001285,
      -0.09546337526565074,
      0.009386043345710814,
      -0.2038207978998107,
      -0.0532430926526611,
      0.4379527237403992,
      0.11332019606824936
    ],
    [
      0.04145181673008351,
      -0.5383906858674281,
      -0.4680821441752305,
      -0.0871604517984179,
      0.07865390416486576,
      0.6064823655987177,
      0.019757556573038612,
      0.24305489623270898,
      -0.18048473211109542,
      -0.3896833143456932
    ],
    [
      -0.26996962690904014,
      -0.37608880312994064,
      0.5277607782809062,
      -0.30751316089381964,
      0.26103905946093353,
      -0.3702255215040372,
      0.3575108986465658,
      0.015463081065544726,
      -0.08280038722685354,
      -0.144231857537821
    ],
    [
      -0.10103637772409974,
      0.1856551368924358,
      -0.16798889635266934,
      -0.3125007995739034,
      -0.31309699138380015,
      0.07613099539625467,
      0.6184136968386218,
      0.11977783852732983,
      0.04540075902325447,
      0.09130761032049245
    ],
    [
      0.47810777818030126,
      0.17675955344299282,
      -0.04735484930559718,
      0.3812114212194515,
      0.22939440724670843,
      0.5011906948719047,
      0.11872495810198241,
      -0.2776075524300474,
      -0.3870739754495922,
      0.5822144124619336
    ],
    [
      0.4872529304415074,
      -0.06982823343681462,
      -0.16129453982141634,
      0.43863814622197944,
      -0.35895496890227174,
      -0.29288882350596984,
      0.17483078928476975,
      -0.14771463306424643,
      -0.02311343278315934,
      -0.18743534975808884
    ],
    [
      0.05127159279776269,
      0.3289446754619447,
      0.09320919193697311,
      0.26153993737550457,
      -0.6142104826027884,
      0.017214038419633204,
      -0.25423633289978886,
      -0.44049033374353974,
      -0.2582963268569115,
      -0.08435873443051739
    ],
    [
      0.2089451259437501,
      -0.7254671890096994,
      0.015038960238241446,
      -0.21274652613958456,
      -0.20759652213194235,
      0.2680203724437162,
      0.11137408221577638,
      0.26863431992238734,
      -0.058564974350313936,
      -0.26935064821873456
    ],
    [
      -0.13044570515636736,
      0.05393206170857499,
      0.1185128550367649,
      -0.4080986530081985,
      -0.019145028544235797,
      0.04313800339273349,
      0.711819382514503,
      0.6338676075971464,
      -0.37792259297912206,
      -0.08538822513324631
    ],
    [
      -0.5439712522475909,
      -0.37383622239345343,
      -0.04939174582782082,
      0.17806607999470175,
      -0.27425896739030764,
      -0.3949359170873654,
      -0.7803442871896659,
      -0.30542033452151685,
      -0.5528473707890815,
      -0.2817862425682872
    ],
    [
      -0.2635767714342211,
      -0.11873527144622747,
      -0.4948863838479799,
      -0.4344769596685172,
      0.7092562465727755,
      -0.27914978919439504,
      -0.2354853358686227,
      0.578030568109188,
      0.9889351918285902,
      -0.38478924702959416
    ],
    [
      -0.15317847654557415,
      -0.06163996108130212,
      0.6157915827713678,
      -0.3317731459512807,
      -0.048379447327140966,
      0.2652631960210387,
      0.11102195819614086,
      -0.20497437334722682,
      -0.06059548834654217,
      -0.40177562258367616
    ],
    [
      -0.1846774092455136,
      -0.1667323371522525,
      0.09573957638298732,
      -0.2844911021040297,
      0.13823346736838893,
      0.2016552266975773,
      0.03705110282033037,
      0.08289590387976589,
      -0.011984151588557231,
      -0.049431636075801526
    ],
    [
      -0.2122636962982039,
      -0.015899985560778956,
      -0.030949768533528613,
      0.6209006159377629,
      0.5024853683810655,
      0.1281986864742467,
      -0.2463802868548147,
      -0.3950094326779083,
      0.33808760750110733,
      0.10404607825027293
    ],
    [
      0.15149249473028653,
      -0.5046675487959349,
      0.2874276203447097,
      0.14806464691161253,
      -0.36742614955904557,
      -0.1731599136295298,
      0.0978848441641663,
      -0.06619480110314899,
      -0.0797538154471657,
      0.08258682563460662
    ],
    [
      -0.15753425465637555,
      -0.016308501090660642,
      0.4040284571153821,
      -0.8309952308141959,
      -0.1222109674217098,
      -0.00698277197007252,
      0.12201230020071165,
      -0.1490002076448023,
      -0.518460717646388,
      0.09438429833836832
    ],
    [
      0.5098491750868868,
      -0.610339187026977,
      0.2237150522659866,
      -0.2375192958799373,
      -0.05994221440289829,
      -0.31037460580764786,
      -0.2295173740727846,
      0.3400761677346346,
      0.12154889158160936,
      0.4048278059799921
    ],
    [
      0.38016599800157136,
      0.1495597540284732,
      0.5450279722508411,
      0.02413123583169345,
      0.14323462534542908,
      -0.05387052698650226,
      0.00858166751526751,
      -0.15543663532542423,
      0.38025694344377325,
      -0.37195219649435174
    ],
    [
      0.23479628158073748,
      -0.16245289721127992,
      0.35393320330034045,
      0.21181588048010083,
      0.5056614644554323,
      0.23749623963164918,
      -0.6092664678386281,
      -0.04450951948875409,
      -0.4436666558828248,
      -0.25470617646335086
    ],
    [
      0.3617668978838681,
      0.08074128408302282,
      -0.23043592002462035,
      -0.2687051237241139,
      -0.020655228665191268,
      -0.44938588737467977,
      -0.28823625177164314,
      0.03484126697808266,
      0.34619214770235807,
      0.2131820520708233
    ],
    [
      -0.6880271815760821,
      0.40515765395424796,
      0.11749987828953432,
      0.1604021181082344,
      0.40964757187217293,
      -0.7188468104552368,
      -0.16518111076005837,
      0.24076266598425689,
      -0.5528441328343563,
      0.4770572721574773
    ],
    [
      0.08016081088173109,
      0.22736405586029232,
      -0.25945193095953334,
      0.1703905686448128,
      0.31203123816062034,
      -0.0377298100074229,
      -0.028153076528390778,
      0.03225640953973914,
      -0.4107087322733529,
      -0.08796569369769841
    ],
    [
      -0.1486805336581637,
      0.34785060251088745,
      0.22646914507441268,
      -0.4465731176063274,
      -0.19937216045916212,
      0.2320789959781159,
      -0.42470246240933296,
      -0.2586756957592802,
      -0.12137227602985246,
      0.11323122054960524
    ],
    [
      0.19421817685562046,
      0.6063894094943694,
      0.3158800255352868,
      0.308613344127655,
      0.12959603324519772,
      0.7892311538900674,
      0.07029773193768683,
      -0.47926100069847705,
      0.6869748684079399,
      -0.020712994325543927
    ],
    [
      0.07303972778937128,
      0.49521229329258376,
      -0.4460702331770061,
      -0.45860819060117003,
      -0.44177761230206625,
      -0.17750916213914306,
      0.1286995144801602,
      0.24211656014211386,
      0.16624917743999493,
      -0.35184172261445856
    ],
    [
      -0.6936160521968919,
      0.03294513828789874,
      -0.24622629449674346,
      0.05690538246076014,
      0.25832004111069384,
      0.10314657632003879,
      0.265025273160749,
      0.13573457609241898,
      0.13293514955957036,
      -0.1930355701391177
    ],
    [
      -0.12402964463358956,
      0.08516672831774427,
      0.38488443529893207,
      -0.10958547932571913,
      0.2287702982816076,
      -0.07940183607494289,
      0.07521933340519578,
      0.1994750564046771,
      -0.5864950350594873,
      -0.26505190115008953
    ],
    [
      -0.3834922781032889,
      -0.9737207874051418,
      -0.22921021151334683,
      0.3707976393633946,
      -0.08457645115095788,
      0.09346782199107007,
      0.3895999497639777,
      0.4424219131654745,
      -0.03579603103618555,
      0.4343032020807627
    ],
    [
      -0.026870328181313945,
      0.057448258286192704,
      -0.18516802758729428,
      -0.5412155357972037,
      -0.31423859141701155,
      -0.1778659131570757,
      0.2749296701711001,
      0.5905709626905089,
      -0.45763545732417404,
      0.2124313541950533
    ],
    [
      -0.38329313247611724,
      0.1834936800329445,
      -0.10391273365583059,
      -0.6248000396627796,
      0.13673421432993177,
      -0.26638093391212836,
      -0.28786537553434133,
      -0.45294017975172407,
      -0.32544380497413505,
      0.007059390742623494
    ],
    [
      -0.09280294092745922,
      0.04555128000267441,
      0.07068693409522402,
      0.3371168256220492,
      -0.16254655665995685,
      -0.5841032757799677,
      0.2995199237986502,
      -0.15795812444240556,
      0.3749938541921188,
      0.04762778728055428
    ],
    [
      0.14924231193159623,
      0.373200602644319,
      0.7053456678786487,
      0.6945051837286462,
      0.09566303134523997,
      0.18847417297065866,
      0.4979757505035428,
      -0.045866422305665726,
      0.24120825210085367,
      0.13515188259811306
    ],
    [
      0.08346571883985662,
      -0.19500317342997536,
      -0.47612773462873914,
      -0.7851814110108075,
      -0.39078029709349493,
      -0.049634848237647744,
      -0.0775026702065616,
      0.5790572304500416,
      0.44839037850147623,
      -0.2579928747787077
    ],
    [
      0.07394077442558161,
      -0.008235221926973055,
      -0.06902245897957315,
      0.15471033518927485,
      0.3318432892168568,
      -0.057561352889600965,
      0.23370016149454753,
      -0.3364505535762541,
      0.07621335585342667,
      0.9097215609884047
    ],
    [
      -0.06244456331641258,
      0.4499987159343558,
      -0.05717433360559564,
      0.05930106168604468,
      -0.05407034714471049,
      -0.12184163152967331,
      -0.4037430353424636,
      0.07199420597110698,
      -0.3508392279816445,
      0.10255518686026246
    ],
    [
      0.31888290891803833,
      0.04591831172556556,
      -0.12000251126556416,
      0.06844843461855449,
      0.01470399960271138,
      0.3001086843266577,
      -0.5864947904022801,
      -0.20524099704208057,
      -0.735257418894073,
      -0.3935543373034369
    ],
    [
      0.23397859914534597,
      0.6833391970800394,
      -0.35082459807290134,
      -0.5181334032879997,
      -1.1065755711510672,
      -0.2891527995982218,
      0.778244505891718,
      0.0632409658617184,
      -0.2331955609749435,
      0.14134932294737515
    ],
    [
      -0.43242401257025886,
      -0.008516215365018256,
      -0.02634570970795977,
      -0.022291886846548876,
      0.2842856221487449,
      0.137429917145571,
      0.17960610966509555,
      -0.2565107691859564,
      0.27219261495810165,
      0.5285673385915513
    ],
    [
      -0.1732686998134248,
      -0.105990693252503,
      0.4415704005906578,
      -0.08403778583112954,
      0.4187634751034842,
      -0.1814650612982881,
      0.4987878945701317,
      0.09422828876287176,
      0.05332981827596906,
      0.5774201435729499
    ],
    [
      -0.38925916942813277,
      -0.7187758023156255,
      -0.5197018102491661,
      -0.14685409647676265,
      -0.703195920568892,
      -0.14307684306706492,
      -0.4008410939000402,
      -0.022209874590505135,
      -0.9992251458523371,
      -0.47356837364077337
    ],
    [
      -0.36049218068200173,
      -0.4248154293913393,
      0.21596280555604566,
      0.21047874414263415,
      0.26934334408742566,
      0.16758379562416803,
      0.22045297820644738,
      -0.1232431406183547,
      0.3925408361171525,
      0.20697279582399292
    ],
    [
      0.11627185773509122,
      0.25007726288691723,
      0.17627451124841043,
      0.6179006274216966,
      0.06142373242560237,
      -0.06446370050647121,
      -0.27756332968527164,
      -0.29731529668047296,
      -0.4680633593023772,
      -0.21120407058379548
    ],
    [
      -0.0135624090494382,
      0.13535709946269509,
      -0.07281477176555214,
      -0.17434602174150832,
      0.2360877786881661,
      0.291838244522558,
      -0.05325317134056214,
      -0.15432258346253847,
      0.10368432860121021,
      0.003236935653111871
    ],
    [
      -0.38634117521146233,
      0.20407438682080986,
      0.08217753524946088,
      -0.24329008780805206,
      0.030494338785154475,
      -0.43537624373794404,
      0.5491010999350074,
      0.4119245415748052,
      -0.07727810049365388,
      0.10764484620268472
    ],
    [
      -0.5463876373596301,
      -0.4902708399968726,
      0.09838412798029153,
      -0.20959754783741424,
      0.4433911768000086,
      0.8232956623328282,
      -0.22925978686923398,
      -0.22611310802989226,
      0.14957009145676678,
      0.5442633815937902
    ],
    [
      -0.3690831942135676,
      0.18786833820433263,
      0.6445230209953009,
      -0.42327301590706945,
      -0.40757670105261373,
      -0.13163016075050676,
      -0.10053762973958814,
      0.3279477264767542,
      0.03055569132065961,
      -0.5270978671377127
    ],
    [
      0.11629588801645992,
      -0.08262227692363053,
      0.3853580647272843,
      -0.26558677876482273,
      -0.1881379198429927,
      0.12439304093010518,
      0.23267501280574662,
      0.06773360786926569,
      -0.5909446879794097,
      0.18962622547779015
    ],
    [
      -0.332213701628049,
      0.163196554943902,
      -0.5410273687835941,
      0.1351210771075472,
      -0.28893819298597745,
      -0.4206482964918076,
      0.21738033198985363,
      -0.03796224166362188,
      -0.12927609482042796,
      0.4905355617048839
    ],
    [
      -0.14410039984015013,
      0.01173278701389913,
      0.12342517830540142,
      -0.09951982190497202,
      0.2567632568167416,
      -0.08238372011824327,
      -0.08471782206726368,
      0.31219916666706227,
      -0.3078681052991656,
      -0.6995860288219863
    ],
    [
      0.5306604689916431,
      1.0834491143680578,
      -0.0561279490946703,
      -0.7571132161346834,
      -0.21376513227088062,
      -0.11126677955127813,
      -0.06031471891141496,
      -0.24893868496760455,
      0.1784091724703616,
      0.22612584451987028
    ]
  ],
  "b1": [
    -0.6868276136396785,
    -0.09353210986657584,
    -0.01861840053998404,
    -0.3363107882386281,
    0.25148187694047175,
    0.007215982197073563,
    0.14100820148452403,
    -0.012873098458920524,
    0.2885516936283814,
    -0.39602208895250235,
    -0.011232022827506339,
    -0.12691671057033413,
    -0.007820613540858284,
    -0.03446461828177441,
    0.13349877651176648,
    0.09447429386929945,
    0.20129125178052873,
    -0.206698773242496,
    0.6304618911178691,
    0.10259087865638461,
    -0.25349596266799057,
    0.19121073682050863,
    0.12822686710764308,
    -0.7753457649871476,
    0.03561100174337699,
    0.00743188539573611,
    0.037597576303471644,
    0.1858644563251444,
    -0.3763621427885506,
    -0.24050131725489837,
    0.11941822604632062,
    0.3042991303536515,
    0.11429813380560219,
    0.06810395512933054,
    0.11471460619886531,
    0.21844442841665335,
    0.27598411148696056,
    0.5618596370316784,
    -0.32038019539789125,
    0.016648001243647393,
    0.11461276596893445,
    -0.06249866708346051,
    -0.053014371518823246,
    -0.5329319297560955,
    0.005960866460662886,
    0.6770714723994304,
    0.0794955422116293,
    0.3965340318891959,
    0.26541704279639466,
    -0.5308391993042972,
    0.10386059120537611,
    0.1215812292204761,
    0.44932719224900247,
    -0.8330479171869944,
    -0.20273268901157712,
    -0.04393427391847056,
    -0.20360780761398956,
    -0.1087829448144855,
    -0.17536602423188657,
    0.12057630537630991,
    0.03508731392840833,
    0.19037248956210645,
    -0.06863565684753281,
    -0.03406391482207577
  ],
  "Wa": [
    [
      -0.2907538081025293,
      0.22804593786009333,
      0.3014791423369099,
      0.08594995765105638,
      0.005154976508134927,
      0.24846620688450832,
      -0.23904080915788425,
      -0.47199269772756114,
      -0.24785481342431592,
      -0.18127379948974814,
      0.491648853814117,
      -0.018111956217609873,
      0.19701562198016503,
      -0.3526134378657765,
      -0.152319379989843,
      -0.4018694594783623,
      -0.26406014088920765,
      0.11392590078164658,
      0.27354102844916756,
      -0.04610332924334458,
      -0.24386361056853662,
      -0.30942030239352036,
      0.15894805085964742,
      -0.2665936479886547,
      -0.2653794757512379,
      -0.23681937399271197,
      -0.3231207444871622,
      -0.031625955049592785,
      -0.2641879521986497,
      -0.2501743276082633,
      -0.03365981314768768,
      0.05144384639813409,
      -0.25253286068503533,
      -0.05001888748391456,
      0.31588203506335644,
      0.23950623531630638,
      0.43158817247457126,
      0.1734551408114684,
      0.2394470701947254,
      -0.0646868957652108,
      0.2469858952161523,
      -0.3942206083334474,
      0.26954711178028956,
      -0.035563093801935224,
      0.0691499559881528,
      0.04112938898156224,
      0.011930140112205131,
      0.27518818785774635,
      0.3105959579888903,
      -0.05016535262921993,
      0.5571179538807388,
      -0.01939244202680524,
      0.11610787741524484,
      -0.52099603616155,
      -0.3633524008066403,
      -0.11969180457305512,
      -0.2254119805295658,
      0.08581662557867806,
      -0.5012766261319825,
      0.008605999864887082,
      0.22436174608645598,
      0.026104868939187793,
      -0.1704759561707426,
      0.6080381302158518
    ],
    [
      0.1625776342280966,
      -0.20624874329950216,
      -0.06706116300579339,
      0.032210856469994116,
      -0.052077506067228274,
      0.09038602222287631,
      -0.07676196471657756,
      0.20162537146710274,
      -0.09067992437861212,
      0.09768535540335102,
      0.012090588803881848,
      -0.23915441882147945,
      -0.17751655002563504,
      0.005894516478461283,
      0.12497983684754585,
      -0.20295867080365704,
      -0.031011009849413632,
      0.1033179670491636,
      -0.3705668248107711,
      -0.1270732037667561,
      -0.07503592746205426,
      0.16669722530506537,
      0.0494080644099041,
      0.241430096450403,
      -0.102755905543485,
      -0.15163945852254657,
      0.1007421561182632,
      -0.0842765589591716,
      0.12206173786112015,
      0.04820048912816956,
      -0.03298045138659683,
      -0.007142097896832005,
      0.05559832442496551,
      0.08623040226662364,
      -0.21425443607848144,
      -0.3635098644447439,
      0.20172663266596322,
      0.2018683104715069,
      0.03308335650282509,
      -0.1495945516710322,
      -0.11649708459284526,
      0.13086032284416943,
      0.25260181611832827,
      0.21286505602799524,
      -0.08944157568890719,
      -0.2318560174622722,
      0.048575441342544906,
      -0.11932146968376892,
      -0.13877502180490725,
      0.328573162251349,
      0.21028195376987135,
      0.08104381383691661,
      -0.14962173561167652,
      0.24621223894044936,
      0.17579958472954385,
      -0.030268412095567816,
      0.16881515955019177,
      0.1416175465105925,
      0.09997855810009619,
      0.09476514567661593,
      0.012399042796809145,
      -0.1670480651093679,
      0.043502322311464496,
      -0.015367515515681284
    ],
    [
      -0.07859077875131937,
      0.12995945991378371,
      0.19726375247612687,
      0.14115761864984838,
      -0.12974990368384795,
      0.18744598119583855,
      -0.08110206084499022,
      0.1269347519075777,
      -0.16254616348977174,
      0.17363129398421878,
      0.1286113921284922,
      -0.19385586204771413,
      -0.0065813536885814435,
      -0.09721706404451128,
      0.3214060499687025,
      0.15863048691567333,
      -0.03807012596856674,
      0.014885572681247471,
      -0.17101473996026562,
      0.03189778278987413,
      0.07855078770028785,
      -0.15652795957930585,
      -0.205094121099851,
      -0.056433876363265856,
      0.057709552687389046,
      0.10727853736834697,
      -0.31241077858487587,
      -0.2515528329700087,
      0.18899088071976344,
      0.28031633324149396,
      0.044049178892720316,
      -0.21855556692777142,
      -0.20024110356619876,
      -0.09394729810619432,
      0.1413897328428765,
      -0.0464642763284854,
      0.13691111465602424,
      0.04939878345562475,
      0.17229051128962883,
      -0.13278261646096048,
      -0.0792074944452041,
      0.008228355743762739,
      0.0650588541822677,
      0.1088390336862774,
      0.07623382002152806,
      -0.16743201986475656,
      0.06173563999087574,
      -0.12051115431146713,
      -0.13391879818649713,
      0.09413760937879459,
      0.10539724893396316,
      -0.28172976770114677,
      -0.2302846566254874,
      0.3252789946813439,
      -0.03622285401148357,
      -0.26472211772399823,
      -0.2936949801226496,
      -0.008370550353896361,
      0.0098030134864135,
      0.08551516898245079,
      0.026018620609919108,
      -0.16588146268032497,
      0.11392931736493968,
      0.18735941276107576
    ],
    [
      -0.16279450115206032,
      0.04138060795132061,
      -0.04132580486680614,
      -0.0148098966666949,
      0.07074862354058263,
      -0.13102233796922877,
      0.5574315135371455,
      0.2274001867344258,
      0.40196675597435827,
      -0.24594007687843975,
      -0.04627585766570904,
      -0.089317327315642,
      0.11349959088057193,
      0.2567874675320245,
      0.5128866452678464,
      0.36490835295197943,
      0.04902637087707465,
      -0.11267888696674616,
      0.14456787404386082,
      -0.05343687881391013,
      -0.14843435756981876,
      0.3118182426951527,
      -0.015582819983370775,
      -0.16234367968718,
      0.13206527784824795,
      0.04452627052570574,
      -0.1217604627776075,
      0.39121782401950417,
      0.056652155266502406,
      -0.3773002953552944,
      0.27677853814484993,
      0.11498707155901611,
      0.07557270075840564,
      -0.035285505812471425,
      -0.4595083265114117,
      -0.06941883810386035,
      -0.28909483680737263,
      0.1676988855578823,
      -0.3193381972633612,
      -0.13759211084222212,
      -0.09206302974090023,
      0.5628797697623205,
      -0.47927890897105585,
      -0.36516602630436484,
      0.00828285967726546,
      0.23185030570523488,
      -0.13888262116975383,
      0.11258433416467625,
      -0.23726388920864022,
      -0.15118232096442424,
      -0.7561577795208627,
      0.11350079405137424,
      0.07418059443432201,
      -0.059429115297452845,
      0.38573281731056364,
      -0.11272653580860023,
      -0.27169321982624306,
      -0.4206277919418102,
      0.28390800813277317,
      -0.29544714402010996,
      -0.06456597662093834,
      -0.27263023360598937,
      -0.13848846681222687,
      -0.5105435384600009
    ]
  ],
  "ba": [
    0.1635160905493787,
    -0.10511815871953537,
    -0.21251877394330562,
    0.2251988919640619
  ],
  "Wv": [
    [
      -0.572313388494792,
      -0.13339969795772827,
      0.03899417197858132,
      -0.27182141893209877,
      0.16375563826230488,
      -0.015556128274827156,
      0.09572119299675473,
      0.11145353250501568,
      0.22390938455629858,
      -0.39015998090556947,
      -0.02078253151254817,
      -0.09941557549008724,
      0.031027149574884748,
      -0.12682429267210643,
      0.15928674687046213,
      0.11596316299945296,
      0.1674282646534893,
      -0.19980840539102102,
      0.572776949544365,
      0.06553172453493483,
      -0.09795519594568398,
      0.16423087602668912,
      -0.026231366840763208,
      -1.133873458916323,
      -0.09421598244549487,
      0.03874097654211049,
      0.07717228835336054,
      0.026077912599984578,
      -0.28294060844563707,
      -0.14255391667371337,
      -0.019919064726314602,
      0.17513687754216645,
      0.07288066754884269,
      0.08795381289783827,
      0.1302828420214221,
      0.15358374469730526,
      0.2167245801592255,
      0.8033187352483425,
      -0.23937409137754095,
      -0.027953295813483478,
      0.07224488710171055,
      -0.0782908831526049,
      0.029090281908256,
      -0.43264612131103314,
      -0.00876536231814401,
      0.8602232675123489,
      0.055779339453726116,
      0.20941457374464004,
      0.12564715211785385,
      -0.37621749172677504,
      0.14389987987117742,
      -0.03859985728201819,
      0.3651281392685441,
      -1.705079118192634,
      -0.24747613910334354,
      0.008234423995175967,
      -0.06209825539666146,
      -0.12173820018885445,
      -0.14436060259482386,
      0.08190676258225149,
      -0.01004789838679174,
      0.16643712410842404,
      0.027561359409220103,
      -0.09562277058008722
    ]
  ],
  "bv": [
    1.2831321274882124
  ]
}