{
  "W1": [
    [
      0.3638794977744713,
      0.03558333008637777,
      0.11800601606757852,
      0.8271320593899548,
      -0.8225540632638001,
      -0.5448910954849799,
      -0.031194539424172465,
      -0.24666149038698904,
      -0.11023569071036293,
      -0.49837523827334423
    ],
    [
      0.027185159074530486,
      0.34587157663781665,
      0.4838794092311202,
      0.2829660418970757,
      0.33188140945457745,
      -0.5157234604717464,
      0.19561785178793478,
      -0.3815031161894726,
      0.2730501997493926,
      -0.18858443306773778
    ],
    [
      0.1727658817104866,
      0.13555959806293238,
      0.29009728727477235,
      0.0006853617724075379,
      -0.23597486161379655,
      0.03746677455640483,
      0.015742775195844258,
      -0.031039997941863805,
      0.006387239873685682,
      0.2414493820178193
    ],
    [
      0.6309647500626038,
      0.13659363023988785,
      -0.1911912974485116,
      -0.17643594404199134,
      0.1706512052099959,
      0.18876050778432885,
      -0.1409708285237841,
      -0.2082538786804805,
      -0.11527850653209522,
      0.37511570099021074
    ],
    [
      0.42434614667982135,
      -0.08797792724220507,
      -0.0919246019700187,
      -0.3102190905538093,
      0.18260723236958376,
      0.258319153317222,
      0.49581796362424574,
      0.2278464749455051,
      0.02718554443926513,
      0.453662617464335
    ],
    [
      -0.2877627974591032,
      -0.08792046639859716,
      -0.28143523778513474,
      -0.28020807393904146,
      -0.03521682219411278,
      -0.06834696956718213,
      -0.2739140500458165,
      0.6666200047528823,
      -0.3506825401417205,
      0.37683244618685297
    ],
    [
      -0.40789365676548894,
      -0.49601229197708335,
      0.1283790391136914,
      0.05745172370194768,
      0.43534115327516987,
      0.10721757468671841,
      -0.3745758681826228,
      0.017027816235050876,
      0.5110448327444519,
      -0.17117336524149326
    ],
    [
      -0.6547048420980844,
      -0.5920324272311566,
      -0.3121535361852053,
      0.3060211043438358,
      0.14193839458449622,
      0.0034307149453070116,
      -0.022555710079955688,
      0.08319181399573108,
      0.2003758773082961,
      -0.03723026621998009
    ],
    [
      -0.05164145626528299,
      -0.5735643954389518,
      -0.36008084611856683,
      -0.22350999834506058,
      -0.28139344923789406,
      0.23184842811816062,
      -0.02479072127048127,
      -0.006689346240100712,
      -0.20610233959118499,
      0.14360358683049074
    ],
    [
      -0.2741487457893449,
      -0.45346511095263553,
      -0.09754674557372323,
      -0.19538266083806083,
      -0.42245504280064966,
      -0.5358082655401466,
      -0.3645309330028384,
      -0.6190728117070103,
      -0.33856229127948734,
      -0.4524202466178302
    ],
    [
      -0.461439348441999,
      0.551909203471517,
      -0.2966646208391731,
      0.3040048888754271,
      -0.3569336050821009,
      -0.09388827808888967,
      -0.2992700975533579,
      0.028973312544888493,
      0.4339353291112983,
      -0.33202309367253224
    ],
    [
      0.20042393082668025,
      -0.09607132309338988,
      -0.12340055288523609,
      -0.25157682602831,
      0.3419926281521523,
      -0.5701784461499289,
      0.22877343436004613,
      0.31118397977582807,
      0.9094268130287262,
      -0.1889764149318911
    ],
    [
      -0.040345222535232636,
      0.009705353708319635,
      -0.024566289854884706,
      0.6315718839010465,
      0.16014462383353098,
      0.13101855779763527,
      0.22315104536059766,
      -0.5279829609210434,
      -0.208681464252423,
      -0.4288012707098689
    ],
    [
      -0.2007111873704099,
      -0.6488354363386161,
      0.4174914792915084,
      -0.09438723178153098,
      -0.5644831762784506,
      -0.37455844203903277,
      -0.06282088255482873,
      0.24778933021402705,
      0.9900798940389159,
      0.7739644373077655
    ],
    [
      0.03642490168152701,
      -0.47103449272098497,
      -0.8121126148733215,
      -0.32050286118748905,
      -0.1433705094235516,
      0.039791526288547055,
      -0.5199350441190059,
      0.03431185457570324,
      0.3525199308471029,
      0.08914309671736885
    ],
    [
      0.19977585878821152,
      -0.7024495081191894,
      -0.38611802082224833,
      -0.06323201269591315,
      0.12253609951887343,
      0.5995225520403358,
      -0.12327387817924132,
      0.15939341013067232,
      -0.3853208654710865,
      -0.4658257985794814
    ],
    [
      -0.05345511911600173,
      -0.4409403141796143,
      0.23389793596556974,
      -0.35404304373118534,
      0.3223729414199569,
      -0.5232894305157415,
      0.6888310354849395,
      -0.06908662932736809,
      -0.08433196280129404,
      -0.37028637778596457
    ],
    [
      0.02678035532831257,
      -0.18186504554379662,
      -0.4839132929575169,
      -0.30180334462339187,
      -0.267193901326932,
      -0.04918532453936121,
      0.6888878974188529,
      -0.00452249588586881,
      0.006050991436732709,
      -0.17746249811330866
    ],
    [
      0.377646166324239,
      0.16044878276382563,
      -0.062141133866141174,
      0.2833930210134538,
      0.38114121903587395,
      0.3203337872432467,
      0.005146763101723423,
      -0.39854301086967225,
      -0.4586098167449429,
      0.5878657501767734
    ],
    [
      0.4131984809719561,
      -0.054585332282301904,
      -0.2012158928816701,
      0.47241182199470166,
      -0.222967346525485,
      -0.2419823361914165,
      0.21352669009962663,
      -0.15343185040479584,
      0.050457116725446616,
      -0.5054562584155327
    ],
    [
      -0.11726753521839428,
      0.08303972003992158,
      0.17962105601983852,
      0.2902644864809767,
      -0.6268443939350916,
      0.034818884919897666,
      -0.2640369953300336,
      -0.6508748606005942,
      -0.33499040796312984,
      -0.1017863956568298
    ],
    [
      0.12878034924913756,
      -0.8540665980235429,
      0.22984823679210337,
      -0.2935481391758405,
      -0.4750129310426564,
      0.2407737514190686,
      0.1405421027235576,
      0.21254602648388277,
      0.05205492035386203,
      -0.14463421373784185
    ],
    [
      -0.14923256608496027,
      0.1936879116113463,
      0.41001379090507556,
      -0.4873956625932093,
      0.01953546182361475,
      -0.010047329152416743,
      0.6825980558156312,
      0.7559689795728207,
      -0.5450097164621123,
      0.12551981029127712
    ],
    [
      -0.24371987523606664,
      -0.4306635742465398,
      0.07006824738634841,
      0.2154719130504031,
      -0.0017379577654637116,
      -0.39228423055339345,
      -0.712839292691209,
      -0.40225277074179977,
      -0.6629079862057468,
      -0.16710406326226873
    ],
    [
      -0.33663849767815524,
      -0.11739226113405327,
      -0.40760975504958474,
      -0.5070226430411613,
      0.6307804372137588,
      -0.04610711230330104,
      0.005368705521979377,
      0.5208374411033669,
      1.0301190953705608,
      -0.4625263821584876
    ],
    [
      -0.28727770327971897,
      -0.08939144147243155,
      0.846065452737897,
      -0.4974745812650738,
      -0.09352567656149033,
      0.257114515504555,
      -0.001416292443088103,
      -0.30983386756618847,
      -0.22024364921195821,
      -0.26054581319864345
    ],
    [
      -0.3688567046424109,
      -0.0804875329160453,
      0.3515496408809423,
      -0.44726677373228746,
      0.27088186371537376,
      -0.00040585131269134725,
      0.19326054267515483,
      0.2316170219215123,
      0.05402552506249141,
      0.017592018043216313
    ],
    [
      -0.13893988891991266,
      -0.012364336394245256,
      0.052033364067923873,
      0.5281275882212662,
      0.549553104835575,
      0.028310353116692794,
      -0.19589731249481945,
      -0.5127386881859666,
      0.2885905911505928,
      0.31014513446386616
    ],
    [
      0.015882973150162367,
      -0.3704603589371183,
      0.14708214356810434,
      -0.0618738368766457,
      -0.5788990050981309,
      -0.37761544077153386,
      -0.03284139511745652,
      -0.47282598768691114,
      -0.16076087633772942,
      0.26528147232342014
    ],
    [
      -0.1605035279289176,
      -0.016167887636845797,
      0.38991054422103744,
      -0.8763308226519322,
      -0.10433696591750533,
      -0.029913320167196285,
      0.3953853460303781,
      -0.08894171258649279,
      -0.3513878882489246,
      0.17862350726837106
    ],
    [
      0.555702136178479,
      -0.639429931604107,
      0.26289062247472533,
      -0.4330544903356187,
      0.029029369783884297,
      -0.10502002814845976,
      -0.4053594755267101,
      0.2923321149309487,
      0.1544995766722335,
      0.21898385588472197
    ],
    [
      0.38473333653286945,
      0.15659471313037565,
      0.5223334748304183,
      -0.2806329282690301,
      -0.1844030165576906,
      0.046081219878655745,
      0.0036678137949511906,
      -0.016589075005927677,
      0.5781779077958926,
      -0.30560404695491317
    ],
    [
      0.3045715372051278,
      -0.050227877642282356,
      0.4572600069772006,
      0.21430282733131922,
      0.39681165659681433,
      0.3130833059726476,
      -0.8073287786231435,
      0.040184088708222765,
      -0.5546270706450195,
      -0.32393937189928157
    ],
    [
      0.08296022489606253,
      0.017727599927221074,
      -0.16603224184278548,
      -0.07314624309610829,
      -0.1073196899461742,
      -0.6134641490547941,
      -0.4507199938469582,
      -0.0372175261323211,
      0.3078575284194315,
      0.37006544941538444
    ],
    [
      -0.6728962818035988,
      0.425721709989309,
      0.3010756485817026,
      0.38188656691154244,
      0.23901932961248093,
      -0.8424740889629073,
      -0.1841661968146368,
      0.3244955888702551,
      -0.6706238378418827,
      0.3341256554695078
    ],
    [
      0.21836696415877377,
      0.14861453270691755,
      -0.23549644629091604,
      0.2647435890160413,
      0.5703716168369642,
      -0.07691850862228732,
      -0.06763853593997915,
      0.09040688941596686,
      -0.4408999361635501,
      0.032232865360501656
    ],
    [
      -0.15671687860700517,
      0.3459094821750682,
      0.19435104433105388,
      -0.2881396443432842,
      -0.18380281828036116,
      0.035087660573514826,
      -0.6908312626610179,
      -0.046738791319259856,
      -0.22048877303633654,
      -0.1315538962952548
    ],
    [
      0.2878981876785615,
      0.6206212552072435,
      0.07717752059537311,
      0.16569819551225645,
      -0.167005810361876,
      0.6686129550070061,
      0.11425057186453311,
      -0.6043220755784942,
      0.869780648270029,
      0.05149616985656489
    ],
    [
      0.08748686368466879,
      0.34584494630072093,
      -0.4783582024094423,
      -0.8410620169678467,
      -0.4443612137714854,
      -0.1160427924771346,
      -0.09237246099518598,
      0.2308286110135675,
      0.13722504214597514,
      -0.36271088013366404
    ],
    [
      -0.5822976549151027,
      0.005718338408862258,
      -0.5628161137589902,
      -0.21617809992705822,
      0.36173315849686527,
      0.2647527679738747,
      0.33197337476214045,
      0.26622147146868885,
      0.04658937594405814,
      -0.12570294627125272
    ],
    [
      -0.38938605035043317,
      -0.21604338688796335,
      0.6989050604591117,
      -0.03583585021460743,
      0.36683665873238314,
      0.009670248851814419,
      0.30542698147410446,
      0.044200577447207845,
      -0.4629189244765003,
      0.043866374382696166
    ],
    [
      -0.3110674836300259,
      -0.9976173432549662,
      -0.38989194254683435,
      0.5176892355775151,
      -0.35726803341564917,
      -0.10082214617782437,
      0.44810443419783774,
      0.5038827609168617,
      -0.29203312787190494,
      0.5063672092545567
    ],
    [
      -0.19623890315344208,
      0.11723331981688846,
      -0.26790522158436586,
      -0.6402355443799798,
      -0.273268220146373,
      -0.12216097872598157,
      0.30051933700995415,
      0.6508039623485178,
      -0.502373517845468,
      0.298104950272765
    ],
    [
      -0.23690500432327838,
      0.43046717105807086,
      -0.047818270855619134,
      -0.5877420605818494,
      0.0034391403487216785,
      -0.20847092991433172,
      -0.37184661573463174,
      -0.5795524690249853,
      -0.460972950068337,
      -0.14284538591629795
    ],
    [
      -0.0757565479371752,
      0.05773982332308697,
      0.07000971374780465,
      0.18200395373744105,
      -0.1843134997321828,
      -0.8855879874394728,
      0.30088514689081763,
      -0.27303507830366863,
      0.5533835266500708,
      -0.035804331941705035
    ],
    [
      0.1411077779901972,
      0.6705993098311699,
      0.5901416381419763,
      0.43092883277813265,
      -0.0826514444272563,
      0.12643653649968398,
      0.5784979358082718,
      -0.008569990175197816,
      0.18951967551996063,
      0.15037949294567493
    ],
    [
      -0.02565832113621562,
      -0.21232829498159372,
      -0.4850077202877078,
      -1.1970068736367874,
      -0.5641224941399579,
      0.29875302101249906,
      -0.09158816904577216,
      0.46403891179095796,
      0.6920106134534884,
      -0.21688242087730886
    ],
    [
      -0.2519272985387452,
      0.04063022282214026,
      -0.1474168998831116,
      0.30448365810204386,
      0.684289298061181,
      -0.027766707146441586,
      -0.20771321714289231,
      -0.60722653521776,
      0.23176021961576201,
      1.0917531710776875
    ],
    [
      -0.12117206824213367,
      0.3610491866338922,
      -0.05066078796593767,
      0.07244211495927216,
      0.20846094187574926,
      0.03359339262488191,
      -0.5579414108058318,
      0.11212014144209338,
      -0.23563581916604237,
      0.054813898819496505
    ],
    [
      0.6654897912019125,
      0.3379818261468672,
      0.015110705997887091,
      0.03813168846730289,
      0.46608341926271857,
      0.509878251625615,
      -0.4811139424290427,
      -0.18547096854225617,
      -0.9108117542121563,
      -0.021237851856869334
    ],
    [
      -0.15640286299392028,
      0.7524488364941468,
      -0.6564401074256692,
      -0.2780156601696172,
      -1.3982058487457891,
      -0.16770751385657434,
      1.038380793966442,
      -0.06634284111026638,
      -0.14810018411213735,
      0.09738323749514663
    ],
    [
      -0.2146656094532148,
      0.36911682300292853,
      -0.13071221173808534,
      0.0364928146145357,
      0.41432476811994434,
      0.1415769515187156,
      0.09427191876919014,
      -0.3239724764160722,
      0.24246536442901206,
      0.5791706290215995
    ],
    [
      -0.24197873210982504,
      -0.007370057364403705,
      0.26278414377985454,
      -0.46121724623112975,
      0.1612294307640516,
      -0.5967832037996053,
      0.3946836684248375,
      -0.166181792594421,
      -0.2196531477882911,
      0.6502849179960233
    ],
    [
      -0.28498166454835183,
      -0.91597026959005,
      -0.7763918891044036,
      -0.1496729128928884,
      -0.7596128743741626,
      -0.28634175727504396,
      -0.3553049606002088,
      0.10884793752106872,
      -0.9909685703426212,
      -0.3373025237910884
    ],
    [
      -0.3752825380266216,
      -0.4155961973910206,
      0.2137436423609498,
      0.31503704882878075,
      0.6251991446923068,
      0.14178153924121464,
      0.19123700025786322,
      0.09497098361886397,
      0.2633716486763034,
      -0.1764022669405684
    ],
    [
      0.050462493633108875,
      0.32731498775427864,
      0.3449226686843878,
      0.49060339789383406,
      0.24911791125003763,
      -0.001989874275795075,
      -0.4732376920101298,
      -0.2569570546794634,
      -0.7701505271662796,
      -0.1065259568233414
    ],
    [
      0.06170241301267499,
      0.17507927945581409,
      -0.31115332735382023,
      0.05393541498502701,
      0.15468989086754004,
      0.47416592455882867,
      0.006349436529196548,
      -0.04554176413334442,
      -0.1406050814498307,
      -0.1271838188755816
    ],
    [
      -0.27554638470619075,
      0.3017885624123695,
      -0.025200105363267226,
      -0.20442674412344086,
      -0.06943155282131902,
      -0.396744219940683,
      0.8074315255376705,
      0.3085075510944312,
      -0.19990368813611098,
      -0.099274556986136
    ],
    [
      -0.25334867243426007,
      -0.6673016827672671,
      0.3942915729964642,
      -0.14832018582675538,
      0.6668643421491317,
      1.0236209888951426,
      -0.09222298318330512,
      -0.33875155820657565,
      0.10205397512375622,
      0.4499823141928768
    ],
    [
      -0.3914702662278373,
      0.2807723872764626,
      0.7836709745295614,
      -0.1781710252158445,
      -0.4723800866827842,
      -0.04441990625742567,
      0.007882373395395981,
      0.5109478771604683,
      -0.17298701523727444,
      -0.5756538981885011
    ],
    [
      0.07220588708848621,
      -0.1875780837981985,
      0.42278452869404887,
      -0.249140668243612,
      0.040733174164586695,
      0.1929255344333343,
      0.28450847629880943,
      -0.08290613217969232,
      -0.5653081983679236,
      0.3094854896249533
    ],
    [
      -0.3039715576594228,
      0.22093474668385293,
      -0.8391489125821093,
      0.29304833566702515,
      -0.3371713748634915,
      -0.34857734521234696,
      0.27029768954748407,
      -0.3243289879042125,
      0.20725347622725274,
      0.6132817176570335
    ],
    [
      -0.2079198951074576,
      -0.06830656513794697,
      0.15095727785566584,
      0.0995441762905733,
      0.44539030491187903,
      0.15289542773797554,
      -0.02862352011639424,
      -0.023800701541826265,
      -0.36795703248188644,
      -0.6291219814325034
    ],
    [
      0.7934500178460704,
      1.0007206318930852,
      0.17359017949799607,
      -1.0170985690385326,
      -0.25835927960123173,
      0.054175385394402344,
      0.01679445908554418,
      -0.1857769286383404,
      0.3261706762363192,
      0.3833074553985719
    ]
  ],
  "b1": [
    -0.7833543311376281,
    -0.008407988180288385,
    -0.28242924772466493,
    -0.3008355752867007,
    0.1782314902031091,
    -0.2549017108184327,
    0.2923516037389365,
    -0.08861931589402815,
    0.45015507769717855,
    -0.3478677218743929,
    -0.33891639464179946,
    -0.3270330052193161,
    -0.04939786066474358,
    -0.002804943677779551,
    0.4463988411949032,
    0.22537344602055226,
    0.4791871788712151,
    -0.488252746098416,
    0.6759460729650483,
    0.3600562586618541,
    -0.4006913742671548,
    0.2827101581753444,
    -0.23119416221327072,
    -0.8732056011307987,
    0.23355067401884816,
    0.04930336439030026,
    -0.12229994254194206,
    0.4375745192258628,
    -0.3228171419367341,
    0.2462850277484867,
    0.12424500646506262,
    0.24484740733248725,
    0.2601529614634602,
    0.08698943687536005,
    0.2194092335819709,
    0.2417861238437619,
    0.35926140892384567,
    0.24739482444750388,
    -0.5109096964738304,
    -0.13661052395625448,
    0.2887266399360998,
    -0.03340703664637221,
    -0.07564170182567082,
    -0.5021558982801335,
    -0.14192550432063866,
    0.591161810349039,
    0.23336981458277983,
    0.3109946172968047,
    0.32517469750748174,
    -0.40970371535375083,
    0.1799524138333332,
    0.7743529627993825,
    -0.06832841942610496,
    -0.8203398272336543,
    -0.21795672528422957,
    -0.23546097529638976,
    -0.43854396056143746,
    0.055332853765885634,
    -0.177617870257952,
    0.38995343494766166,
    0.07640258844684703,
    0.23347422216613828,
    0.32206815427614555,
    -0.15683649524240595
  ],
  "Wa": [
    [
      -0.18690595583259337,
      0.27715249403357844,
      0.4010230566089121,
      0.34922403282865544,
      -0.1429757735620349,
      0.2492265935179711,
      -0.22509601186667644,
      -0.09008163170140565,
      -0.424611936840557,
      -0.27765238639696244,
      0.6563432959009311,
      -0.2057487505731556,
      0.29937662557455724,
      -0.4753941303939047,
      0.1699662262713234,
      -0.7816388428235495,
      -0.44103411651582525,
      -0.2619906025101338,
      0.4298056487439483,
      -0.004297303448028775,
      -0.5662665495177713,
      -0.3335020827069748,
      0.41279725077602636,
      -0.5121169502629466,
      -0.5144754095960496,
      -0.30395681000014096,
      -0.42219032756678226,
      0.016653744779720155,
      -0.02455463767252891,
      -0.038035609886690074,
      -0.0992864287680754,
      -0.017885992838664246,
      -0.3582304017857435,
      -0.19671591122018808,
      0.32428130401105093,
      0.35687248836184116,
      0.29479213888080785,
      0.440815234940962,
      0.3563051815716581,
      0.04231701396159204,
      0.2643367352785531,
      -0.3207551234650686,
      0.34391605325927066,
      0.1417116615207608,
      0.23538175834053385,
      0.17220175027215368,
      -0.09048335394146283,
      0.43383462256626415,
      0.3173176452493557,
      0.16111724270039396,
      0.5509038979085843,
      0.009697451031114402,
      0.09908526153800969,
      -0.9662353995896952,
      -0.24612746734916197,
      -0.27468493038184616,
      -0.06401879994813348,
      0.22541109691661576,
      -0.5787244990713578,
      0.05369640706578062,
      0.18464212765393107,
      -0.13690142855059723,
      -0.15739479878989554,
      0.4645292036876162
    ],
    [
      0.054872383708369485,
      -0.32076634517188185,
      0.1309362830256336,
      0.03886575123744834,
      0.03309462954892621,
      0.10600671956185176,
      -0.31509979777525154,
      0.34499989423867616,
      0.01857116442047768,
      0.06211432868108289,
      -0.015048871001370954,
      -0.5216299514814062,
      -0.06471835698464747,
      -0.11907678482818014,
      0.4763267099122752,
      -0.5219007055307672,
      -0.05422541468842276,
      -0.03511349792022781,
      -0.3826275289307173,
      0.06825569327343159,
      -0.1800313442578008,
      0.18732393338469572,
      0.2696633229309972,
      0.42692819333340937,
      -0.1385709535848131,
      -0.1834421328955278,
      0.29903743616582046,
      -0.20583546398401756,
      0.1942127928473566,
      0.03604037948541703,
      -0.051667091502354025,
      0.08141660404757496,
      0.06728910664172813,
      0.03114051110893193,
      -0.31635779068401076,
      -0.46853678813736654,
      0.45651857895496106,
      0.5375069560522261,
      0.2644309121766546,
      0.036792199171925596,
      -0.49581565352416945,
      0.21757995795322438,
      0.21612964942396157,
      0.38303781095563205,
      -0.14748908788717852,
      -0.3397254878638264,
      -0.0395454132962349,
      -0.19977478188099626,
      -0.0750428729933979,
      0.36037279029076513,
      0.15304414135812436,
      0.105557507874486,
      -0.008600114882681892,
      0.5088435838794327,
      0.3761077293917207,
      -0.3284590736141459,
      0.20206957240025694,
      0.29506316132327415,
      0.01040373004719721,
      -0.11971176940472913,
      0.0489237038817359,
      -0.16298548690608183,
      -0.05537853490460522,
      0.14566634244774204
    ],
    [
      -0.23762096691081097,
      0.1863503213336446,
      0.24759753393258416,
      0.22749163288505653,
      -0.2955817989454937,
      0.19443742283308374,
      -0.3037917739634277,
      0.07819958019231778,
      -0.2578782669650864,
      -0.04886865092561332,
      0.27727521832786106,
      -0.23685982895265872,
      0.0739532347220531,
      -0.11014734808363207,
      0.3586504359769429,
      0.09338957091994987,
      -0.09869353118223868,
      -0.10508503651722348,
      -0.30576940836051725,
      0.22260888426176598,
      0.266751163821613,
      -0.4930809960424262,
      -0.24405528952782365,
      -0.263991638572517,
      -0.06397473127280753,
      0.2679943225771177,
      -0.46391175663885176,
      -0.620285457074146,
      0.14531810328274491,
      0.2829991374832833,
      0.13249277898845113,
      -0.5450035549909317,
      -0.29785721270538007,
      0.08949808816432184,
      0.2854128461730776,
      -0.09082223478790603,
      0.1432456451896111,
      0.15725109704769322,
      0.3061860217629704,
      -0.142703103195293,
      -0.273804705465952,
      -0.034929277429651746,
      0.05224372007058451,
      0.16423732961618406,
      0.3752152714407517,
      -0.020455924015628846,
      0.10617448688745895,
      -0.27441437825894305,
      -0.21876636266096108,
      -0.10600416692286124,
      0.25710939921039305,
      -0.27568401697854583,
      -0.29798519474530805,
      0.3697484282507417,
      0.15803793602992555,
      -0.4013481335188045,
      -0.4334958970357146,
      -0.10486973645700126,
      -0.14608487660068736,
      -0.06515889901627199,
      -0.2346353551996067,
      0.01390104739343366,
      -0.06901823403945706,
      0.2481578455241765
    ],
    [
      -0.0387711307350914,
      0.24534457084835337,
      -0.012463236435943692,
      -0.08581621475785077,
      0.21798390388659078,
      -0.19991420192908363,
      0.5669506121526575,
      0.4385588213815895,
      0.28962442090962015,
      -0.37043939224312683,
      0.13152578245132246,
      -0.15276431745368008,
      0.1279563417189755,
      0.005616724352005872,
      0.2680986247426106,
      0.4940107337136171,
      0.08038541743406685,
      -0.0662087058948534,
      0.2843903272554249,
      -0.1230193295162178,
      -0.029832603436087526,
      0.19315931307160683,
      -0.07992916717866227,
      -0.3223262791300505,
      0.14380779678921957,
      0.02614759705246984,
      -0.20481502088393766,
      0.4979311353506066,
      0.0842027448508425,
      -0.3010260859280605,
      0.2738055405116332,
      0.03688731241398663,
      -0.14461615061219035,
      -0.010074507545449422,
      -0.4911874533480252,
      -0.034967321984272964,
      -0.5025837774464854,
      0.2361214161489487,
      -0.242634558815291,
      -0.2704574969689647,
      -0.15321326878461083,
      0.6805369314797556,
      -0.538807692426319,
      -0.0520203380317488,
      0.006251790906448086,
      0.4691808604315488,
      -0.06924887437738682,
      0.07614658686316542,
      -0.20207748712819446,
      -0.5859344446336079,
      -0.967504210675929,
      0.2670361796329876,
      0.027789013947851736,
      -0.07181814917559377,
      0.3988894301305157,
      -0.022194119427311955,
      -0.15465655560029118,
      -0.4706798710306801,
      0.6505304565883865,
      -0.20524226385430003,
      -0.05341118284812292,
      -0.28323679262766,
      -0.0007126532727235307,
      -0.5295191777611719
    ]
  ],
  "ba": [
    0.1944420372064814,
    -0.03211670809420547,
    -0.18085646848994263,
    0.3028433387800656
  ],
  "Wv": [
    [
      -0.5079400709561346,
      -0.06768769425141932,
      0.16294082473163524,
      -0.21347584482796178,
      0.297834175689902,
      -0.17787756920837497,
      0.10354045938859492,
      0.07573870325418747,
      0.23408543094374704,
      -0.23684352092701053,
      -0.2090886139099897,
      -0.09386224791405257,
      -0.011535612742954096,
      -0.07651371785145966,
      0.3293055863159855,
      0.1538487673205386,
      0.16906711384761325,
      -0.48895579127217237,
      0.5761887910315757,
      0.25356173534068577,
      -0.44680895713766944,
      0.22776131566218905,
      -0.13380975854119107,
      -0.9476556942160071,
      -0.1457378200303079,
      0.03777803756376951,
      0.1820740792689559,
      0.18420217909635406,
      -0.6783352496066628,
      -0.033416335398550885,
      -0.1289373501966615,
      -0.09014621682314111,
      0.0460733963740806,
      0.16376936556584745,
      0.25343658543706055,
      0.30099591247778007,
      0.208970279223064,
      0.7553354579818209,
      -0.6995846384682504,
      -0.1835758551424067,
      0.13057765250830525,
      -0.2219606209063722,
      0.07767484752318628,
      -0.2755466440154114,
      -0.12847651962172119,
      0.6513201465435956,
      0.020350328687243735,
      -0.20849922036703866,
      -0.0051551527560846685,
      -0.12550628158088858,
      0.21592243502510347,
      0.6683244874151613,
      0.007545912532069562,
      -1.3810053013005845,
      -0.29028446307460737,
      -0.10904993137861725,
      -0.029221267666155605,
      -0.022348810414397735,
      -0.3315613567429052,
      0.05552110161087051,
      -0.07773061701429951,
      -0.02522958147599653,
      0.26316415439979385,
      -0.22694510926495526
    ]
  ],
  "bv": [
    0.8318642088501125
  ]
}